SVM-light Version V6.02
2 # kernel type
3 # kernel parameter -d 
0.0005 # kernel parameter -g 
1 # kernel parameter -s 
1 # kernel parameter -r 
empty# kernel parameter -u 
40 # highest feature index 
540 # number of training documents 
223 # number of support vectors plus 1 
-2.8089576 # threshold b, each following line is a SV (starting with alpha*y)
-25 1:6.5749998 2:1.6440001 3:3.6159999 4:8.2189999 5:4.9320002 6:6.9039998 7:2.3010001 8:5.2600002 9:4.9320002 10:13.808 11:2.9590001 12:4.6030002 13:5.2600002 14:6.9039998 15:3.2880001 16:3.2880001 17:5.2600002 18:5.5890002 19:0.986 20:2.3010001 21:0.45199999 22:0.40200001 23:-0.15800001 24:0.039999999 25:0.206 26:0.075000003 27:-0.098999999 28:-0.23899999 29:-0.022 30:-0.58499998 31:0.42300001 32:0.077 33:0.26300001 34:0.245 35:0.033 36:0.20900001 37:-0.167 38:-0.046999998 39:0.092 40:0.171 #
-25 1:4.5029998 2:3.9400001 3:4.5029998 4:2.2509999 5:11.819 6:5.0650001 7:0 8:6.7540002 9:6.191 10:10.694 11:2.8139999 12:1.688 13:2.2509999 14:3.3770001 15:1.688 16:7.3169999 17:4.5029998 18:3.9400001 19:1.688 20:2.2509999 21:1.187 22:0.92500001 23:0.66900003 24:0.58200002 25:1.0470001 26:0.662 27:1.119 28:0.926 29:0.245 30:0.075000003 31:0.44100001 32:0.12800001 33:0.91900003 34:0.69800001 35:0.25999999 36:0.42500001 37:0.61799997 38:0.34799999 39:0.89899999 40:0.58899999 #
-25 1:6.6799998 2:0.361 3:5.4159999 4:5.4159999 5:2.527 6:8.1239996 7:1.8049999 8:5.2350001 9:5.2350001 10:8.665 11:1.2640001 12:6.6799998 13:4.8740001 14:3.7909999 15:4.3330002 16:9.5679998 17:8.665 18:9.026 19:1.0829999 20:1.8049999 21:0.115 22:-0.0099999998 23:0.089000002 24:-0.083999999 25:0.035 26:0.07 27:0.037999999 28:-0.078000002 29:-0.044 30:0.014 31:-0.071000002 32:0.059 33:0.27500001 34:0.088 35:-0.317 36:-0.30899999 37:-0.26499999 38:-0.092 39:-0.119 40:0.052000001 #
25 1:8.1280003 2:1.355 3:7.7210002 4:5.4190001 5:5.4190001 6:7.1799998 7:3.928 8:5.8249998 9:5.0120001 10:10.702 11:1.896 12:4.4699998 13:4.1989999 14:5.1479998 15:4.7410002 16:5.5539999 17:3.793 18:6.9089999 19:0.94800001 20:3.1159999 21:-0.178 22:-0.34200001 23:-0.54299998 24:-0.389 25:-0.061000001 26:0.001 27:-0.081 28:0.064000003 29:-0.43099999 30:-0.315 31:-0.39199999 32:-0.287 33:0.338 34:0.63999999 35:-0.141 36:-0.126 37:-0.17200001 38:0.0049999999 39:0.37099999 40:0.57700002 #
25 1:5.8280001 2:0.97100002 3:3.8859999 4:2.914 5:2.914 6:2.914 7:1.943 8:6.8000002 9:2.914 10:8.743 11:1.943 12:0 13:6.8000002 14:3.8859999 15:13.6 16:21.371 17:2.914 18:5.8280001 19:1.943 20:0.97100002 21:0.85299999 22:0.68599999 23:0.257 24:0.39500001 25:-0.29100001 26:-0.18700001 27:-1.173 28:-0.48899999 29:0.62 30:0.146 31:-0.63099998 32:-0.58899999 33:-0.48699999 34:-0.27700001 35:-0.37099999 36:-0.54299998 37:-0.523 38:-0.54100001 39:2.3570001 40:1.707 #
-25 1:14.513 2:1.177 3:6.276 4:6.276 5:1.177 6:8.2370005 7:1.961 8:5.4910002 9:1.177 10:10.59 11:1.177 12:2.7460001 13:5.8839998 14:3.138 15:7.4520001 16:7.4520001 17:4.7069998 18:8.2370005 19:1.569 20:0.78399998 21:0.063000001 22:0.29800001 23:-0.26699999 24:0.013 25:0.072999999 26:-0.132 27:0.13699999 28:0 29:-0.115 30:-0.26100001 31:-0.025 32:-0.433 33:-0.333 34:-0.088 35:0.38299999 36:0.212 37:0.20100001 38:0.40099999 39:-0.26100001 40:0.113 #
25 1:2.089 2:0.89499998 3:3.283 4:6.566 5:8.9530001 6:2.388 7:0.89499998 8:11.639 9:7.1630001 10:12.534 11:3.283 12:5.073 13:0.29800001 14:1.791 15:1.492 16:5.6700001 17:2.6860001 18:5.6700001 19:0.29800001 20:4.7750001 21:0.56 22:-0.092 23:0.64099997 24:0.23899999 25:1.161 26:0.81199998 27:0.70599997 28:0.699 29:0.86000001 30:0.58200002 31:0.81 32:0.46200001 33:1.099 34:0.79400003 35:0.419 36:0.163 37:0.76800001 38:0.1 39:0.954 40:0.81900001 #
-12.280545707764218832380720414221 1:9.0279999 2:0 3:1.29 4:9.0279999 5:2.579 6:6.4489999 7:1.29 8:3.869 9:11.608 10:3.869 11:1.29 12:2.579 13:0 14:7.7379999 15:7.7379999 16:10.318 17:3.869 18:5.1589999 19:3.869 20:1.29 21:0.447 22:0.035999998 23:0.31999999 24:0.57700002 25:0.39399999 26:0.449 27:1.798 28:1.2819999 29:0.88999999 30:0.54299998 31:-1.27 32:-0.85100001 33:0.69099998 34:0.54000002 35:0.71100003 36:0.96799999 37:0.028000001 38:1.1210001 39:-1.163 40:-0.37200001 #
-25 1:11.207 2:0.303 3:5.1490002 4:6.6630001 5:5.1490002 6:5.4520001 7:2.1199999 8:6.9660001 9:5.4520001 10:11.207 11:1.212 12:5.7550001 13:4.8460002 14:4.2399998 15:3.332 16:5.4520001 17:6.0580001 18:7.2690001 19:0.60600001 20:1.5140001 21:0.105 22:0.037 23:-0.030999999 24:-0.101 25:0.043000001 26:-0.154 27:0.0070000002 28:0.066 29:-0.067000002 30:-0.124 31:0.52200001 32:0.398 33:-0.322 34:-0.35499999 35:-0.037999999 36:-0.111 37:-0.119 38:-0.167 39:0.34099999 40:0.118 #
25 1:9.8529997 2:1.799 3:5.8260002 4:4.2839999 5:3.941 6:9.9390001 7:1.799 8:5.4840002 9:4.7119999 10:5.8260002 11:2.2279999 12:6.8540001 13:5.5689998 14:5.4840002 15:3.513 16:7.026 17:5.9980001 18:4.027 19:0.85699999 20:4.3699999 21:0.003 22:-0.0089999996 23:-0.12899999 24:0.090000004 25:0.078000002 26:0.17299999 27:0.234 28:0.15700001 29:-0.131 30:-0.056000002 31:-0.215 32:-0.043000001 33:0.36899999 34:0.36700001 35:-0.027000001 36:-0.068000004 37:-0 38:0.107 39:-0.154 40:-0.133 #
5.8913028188045677424611312744673 1:6.4530001 2:3.0369999 3:2.2780001 4:5.3140001 5:3.4159999 6:6.0739999 7:1.518 8:4.9349999 9:4.5549998 10:6.4530001 11:1.1390001 12:6.0739999 13:5.3140001 14:4.9349999 15:4.9349999 16:15.564 17:6.0739999 18:4.5549998 19:2.2780001 20:4.5549998 21:-0.12 22:0.039999999 23:0.125 24:-0.15000001 25:0.081 26:-0.050999999 27:-0.33500001 28:-0.303 29:0.169 30:-0.208 31:0.377 32:0.257 33:-0.226 34:-0.102 35:0.245 36:0.30500001 37:0.259 38:0.237 39:-0.208 40:0.153 #
25 1:7.0929999 2:3.783 3:2.3640001 4:6.1469998 5:4.256 6:5.2010002 7:1.419 8:4.256 9:6.1469998 10:7.0929999 11:3.3099999 12:4.7290001 13:3.783 14:3.3099999 15:4.7290001 16:12.294 17:5.2010002 18:5.2010002 19:2.8369999 20:6.1469998 21:-0.42199999 22:-0.20900001 23:-0.0020000001 24:0.067000002 25:-0.079000004 26:-0.063000001 27:-0.112 28:0.028000001 29:-0.02 30:-0.43599999 31:0.68099999 32:0.149 33:-0.125 34:-0.133 35:0.61199999 36:0.56300002 37:0.014 38:-0.134 39:-0.064999998 40:0.38800001 #
25 1:4.4590001 2:4.013 3:4.9050002 4:8.4720001 5:2.675 6:7.1350002 7:0.44600001 8:5.7969999 9:4.013 10:8.4720001 11:1.784 12:8.026 13:1.784 14:3.1210001 15:7.1350002 16:4.013 17:6.6890001 18:9.3640003 19:3.5669999 20:2.675 21:0.565 22:0.37 23:-0.086999997 24:0.096000001 25:0.105 26:0.20299999 27:0.029999999 28:0.42399999 29:-0.16 30:-0.465 31:-0.285 32:-0.324 33:0.778 34:0.57300001 35:0.26699999 36:0.40700001 37:-0.33500001 38:-0.25299999 39:-0.36199999 40:-0.094999999 #
-25 1:2.4489999 2:2.177 3:5.987 4:7.8930001 5:4.6269999 6:2.4489999 7:1.089 8:10.614 9:7.0760002 10:10.614 11:3.8099999 12:9.2530003 13:2.7219999 14:8.7089996 15:1.633 16:7.0760002 17:5.171 18:2.994 19:0.81599998 20:2.994 21:0.035 22:0.199 23:-0.458 24:-0.19499999 25:0.148 26:-0.21699999 27:0.21799999 28:0.17900001 29:-0.63300002 30:-0.23999999 31:-0.41600001 32:-0.241 33:0.54299998 34:0.044 35:-0.102 36:0.126 37:-0.082000002 38:0.15700001 39:0.43799999 40:0.345 #
18.572706739613309423475584480911 1:19.08 2:0 3:3.6340001 4:4.5430002 5:0.90899998 6:6.3600001 7:0.90899998 8:1.817 9:1.817 10:8.177 11:10.903 12:1.817 13:2.7260001 14:5.4510002 15:13.629 16:3.6340001 17:1.817 18:3.6340001 19:1.817 20:1.817 21:0.40200001 22:0.34799999 23:-0.037999999 24:0.294 25:0.31299999 26:0.65399998 27:0.71399999 28:0.70700002 29:0.185 30:0.324 31:-0.012 32:0.134 33:1.479 34:0.81999999 35:-0.026000001 36:0.51200002 37:-0.70599997 38:-0.61299998 39:-0.102 40:0.122 #
-25 1:14.255 2:2.2509999 3:6.7519999 4:6.7519999 5:3.0009999 6:11.254 7:3.7509999 8:5.2519999 9:1.501 10:9.7539997 11:2.2509999 12:1.501 13:6.0019999 14:2.2509999 15:6.7519999 16:4.5019999 17:4.5019999 18:6.7519999 19:0.75 20:0.75 21:-0.093999997 22:-0.273 23:-0.121 24:-0.31099999 25:0.014 26:-0.183 27:0.193 28:0.142 29:-0.064999998 30:-0.052999999 31:0.094999999 32:0.42699999 33:0.19599999 34:-0.16599999 35:0.63200003 36:0.186 37:0.122 38:-0.156 39:-0.55299997 40:-0.57099998 #
-25 1:11.627 2:1.224 3:1.224 4:1.224 5:1.836 6:9.1789999 7:4.895 8:1.836 9:3.0599999 10:5.507 11:1.224 12:4.895 13:8.5670004 14:6.119 15:5.507 16:6.119 17:6.119 18:3.0599999 19:1.836 20:6.7309999 21:1.108 22:0.13 23:0.63700002 24:0.198 25:0.93000001 26:0.36399999 27:1.018 28:0.18799999 29:0.84500003 30:0.35100001 31:0.31 32:-0.162 33:0.47299999 34:-0.0040000002 35:0.70700002 36:0.333 37:0.109 38:0.086999997 39:0.308 40:0.27900001 #
-25 1:11.198 2:0.56 3:3.9189999 4:1.6799999 5:2.799 6:10.078 7:1.6799999 8:3.359 9:3.9189999 10:5.599 11:1.6799999 12:3.359 13:6.1589999 14:0.56 15:9.5179996 16:14.557 17:5.039 18:5.039 19:1.12 20:1.12 21:0.565 22:0.101 23:0.20299999 24:0.308 25:0.098999999 26:0.126 27:0.25999999 28:0.75800002 29:0.29800001 30:0.32100001 31:0.44100001 32:0.29499999 33:0.61799997 34:0.66600001 35:0.51800001 36:0.40099999 37:0.241 38:0.48100001 39:0.352 40:0.0080000004 #
-25 1:14.405 2:2.365 3:5.8049998 4:2.365 5:2.1500001 6:9.2449999 7:1.075 8:4.085 9:4.5149999 10:7.0949998 11:1.505 12:5.1599998 13:5.5900002 14:3.8699999 15:1.9349999 16:6.4499998 17:9.46 18:5.375 19:2.1500001 20:5.1599998 21:-0.171 22:-0.17200001 23:0.015 24:-0.198 25:0.26499999 26:0.219 27:0.214 28:0.153 29:0.071000002 30:-0.131 31:0.074000001 32:-0.101 33:0.197 34:0.050999999 35:-0.064000003 36:-0.113 37:0.068000004 38:-0.30500001 39:0.059999999 40:0.111 #
-25 1:8.8629999 2:2.5320001 3:6.9640002 4:6.3309999 5:3.165 6:10.762 7:1.266 8:4.4310002 9:3.7980001 10:10.129 11:1.266 12:1.899 13:0.63300002 14:3.7980001 15:8.2299995 16:4.4310002 17:5.698 18:6.3309999 19:2.5320001 20:3.165 21:0.30899999 22:0.37 23:0.97299999 24:0.86199999 25:0.322 26:-0.28600001 27:0.62599999 28:0.012 29:-0.079999998 30:-0.191 31:0.068999998 32:0.45100001 33:0.45899999 34:0.081 35:-0.12 36:-0.082000002 37:-0.52700001 38:0.015 39:0.336 40:0.177 #
25 1:5.4520001 2:2.23 3:3.47 4:9.9130001 5:3.2219999 6:5.4520001 7:1.239 8:3.47 9:6.9390001 10:12.639 11:0.74299997 12:3.717 13:3.9649999 14:10.905 15:3.2219999 16:8.4259996 17:4.461 18:4.7090001 19:1.983 20:2.7260001 21:-0.31099999 22:0.081 23:-0.223 24:-0.368 25:0.588 26:0.60299999 27:-0.071000002 28:0.046 29:0.19499999 30:0.133 31:-0.67500001 32:-0.23899999 33:0.026000001 34:0.043000001 35:-0.36399999 36:-0.38699999 37:0.035 38:0.55000001 39:0.54299998 40:0.90899998 #
-25 1:6.0900002 2:2.576 3:2.342 4:8.4320002 5:2.342 6:5.6209998 7:1.874 8:5.6209998 9:4.2160001 10:11.945 11:2.342 12:3.7479999 13:4.684 14:4.9190001 15:6.3239999 16:11.477 17:3.7479999 18:5.6209998 19:0.93699998 20:3.279 21:-0.026000001 22:0.028000001 23:-0.16 24:-0.052000001 25:0.377 26:0.36300001 27:0.45300001 28:0.53899997 29:0.37900001 30:0.373 31:-0.126 32:-0.021 33:-0.146 34:-0.145 35:0.34 36:0.354 37:-0.52100003 38:-0.14 39:-0.046 40:0.035999998 #
7.8307283482209175673460777034052 1:14.706 2:0 3:1.548 4:1.161 5:3.483 6:11.223 7:0 8:6.9660001 9:3.8699999 10:8.5139999 11:1.161 12:1.9349999 13:3.8699999 14:3.096 15:0.77399999 16:8.5139999 17:12.384 18:7.3530002 19:1.161 20:2.322 21:0.55599999 22:-0.035999998 23:0.38299999 24:-0.0060000001 25:0.25299999 26:-0.18799999 27:0.74000001 28:0.11 29:0.31 30:-0.094999999 31:0.78399998 32:0.21799999 33:0.53299999 34:0.037 35:1.0039999 36:0.39500001 37:0.26699999 38:-0.127 39:0.70200002 40:0.12 #
25 1:2.8169999 2:3.3800001 3:5.6339998 4:8.4510002 5:6.197 6:5.6339998 7:0.56300002 8:7.3239999 9:4.507 10:8.4510002 11:2.8169999 12:8.4510002 13:2.8169999 14:3.3800001 15:4.507 16:4.507 17:5.0700002 18:7.8870001 19:2.8169999 20:0.56300002 21:1.145 22:0.92400002 23:0.53200001 24:0.189 25:0.428 26:0.17200001 27:0.26899999 28:0.315 29:0.148 30:-0.39199999 31:-0.249 32:-0.101 33:-0.145 34:0.149 35:-0.028999999 36:0.45199999 37:0.093000002 38:0.234 39:-0.28400001 40:0.37900001 #
-25 1:12.942 2:1.523 3:9.1350002 4:7.6129999 5:4.5679998 6:7.6129999 7:2.2839999 8:3.0450001 9:3.806 10:7.6129999 11:5.329 12:1.523 13:6.0900002 14:2.2839999 15:6.8509998 16:6.8509998 17:3.806 18:6.8509998 19:3.0450001 20:0.76099998 21:-0.65200001 22:-0.59600002 23:0.43700001 24:0.075999998 25:-0.119 26:-0.068999998 27:-0.13699999 28:0.41299999 29:-0.433 30:-0.34099999 31:-1.056 32:-0.579 33:-0.107 34:-0.022 35:0.37900001 36:0.63499999 37:-0.88499999 38:-0.119 39:-0.16500001 40:-0.19400001 #
-25 1:14.638 2:0.375 3:5.6300001 4:6.756 5:2.6270001 6:11.635 7:0.375 8:6.381 9:5.2550001 10:8.6330004 11:4.5040002 12:1.877 13:2.6270001 14:2.2520001 15:6.381 16:1.126 17:6.756 18:11.635 19:0 20:0.75099999 21:0.285 22:0.147 23:-0.25099999 24:-0.19499999 25:0.266 26:0.106 27:-0.36399999 28:-0.18700001 29:-0.74699998 30:-0.62900001 31:0.28600001 32:0.211 33:0.303 34:0.145 35:0.273 36:0.21600001 37:-0.071000002 38:-0.082000002 39:0.0089999996 40:0.064999998 #
0.71411242418015574706657844217261 1:9.0570002 2:6.5869999 3:2.47 4:6.8610001 5:5.4889998 6:5.7639999 7:1.647 8:7.9590001 9:2.7449999 10:9.6059999 11:1.647 12:2.47 13:3.842 14:0.54900002 15:4.1170001 16:11.802 17:2.1960001 18:6.0380001 19:1.372 20:2.1960001 21:0.55599999 22:0.27000001 23:0.76499999 24:0.403 25:0.1 26:-0.13500001 27:0.51999998 28:0.49399999 29:0.78200001 30:0.50300002 31:0.81099999 32:0.62 33:0.16500001 34:-0.082999997 35:-0.212 36:-0.0099999998 37:-0.162 38:-0.36000001 39:0.42300001 40:0.13699999 #
-25 1:5.921 2:2.221 3:2.221 4:2.961 5:2.961 6:7.402 7:2.961 8:3.701 9:8.882 10:5.921 11:1.48 12:6.6620002 13:6.6620002 14:8.882 15:5.1810002 16:7.402 17:5.921 18:2.961 19:0 20:0.74000001 21:0.26199999 22:0.88499999 23:0.78399998 24:0.83700001 25:0.67900002 26:0.48199999 27:0.97500002 28:0.82200003 29:0.012 30:0.061999999 31:0.104 32:0.28799999 33:-0.028999999 34:0.086000003 35:0.86699998 36:0.73900002 37:0.081 38:0.57099998 39:-0.067000002 40:0.51899999 #
-25 1:4.0339999 2:3.006 3:6.3280001 4:5.3790002 5:4.9829998 6:2.5309999 7:2.6889999 8:7.5939999 9:9.0970001 10:8.7799997 11:2.6099999 12:10.283 13:1.74 14:2.848 15:2.848 16:6.0120001 17:4.9829998 18:6.0120001 19:1.107 20:6.0910001 21:-0.043000001 22:0.041999999 23:-0.278 24:-0.19599999 25:-0.103 26:0.21699999 27:0.141 28:0.296 29:-0.25 30:-0.109 31:0.333 32:0.199 33:0.30500001 34:0.20200001 35:-0.176 36:-0.0040000002 37:-0.15800001 38:0.0099999998 39:0.26800001 40:0.34599999 #
-25 1:6.4109998 2:2.7869999 3:6.4109998 4:6.4109998 5:1.3940001 6:9.198 7:2.23 8:4.46 9:3.6240001 10:10.871 11:1.951 12:1.951 13:4.1810002 14:4.7379999 15:8.9189997 16:9.198 17:6.4109998 18:4.1810002 19:1.951 20:2.23 21:-0.121 22:0.102 23:-0.60900003 24:-0.31799999 25:0.227 26:0.60000002 27:0.094999999 28:0.228 29:-0.044 30:0.109 31:0.113 32:0.447 33:0.169 34:0.072999999 35:-0.28 36:0.029999999 37:-0.23800001 38:-0.15800001 39:-0.0049999999 40:0.072999999 #
-19.987149801830980777594959363341 1:13.372 2:0 3:1.783 4:1.783 5:2.674 6:14.263 7:0.89099997 8:3.566 9:0 10:12.481 11:0.89099997 12:1.783 13:3.566 14:0 15:4.4569998 16:2.674 17:1.783 18:14.263 19:4.4569998 20:0 21:1.351 22:0.29499999 23:1.498 24:0.56400001 25:1.291 26:0.54699999 27:0.77399999 28:-0.043000001 29:1.53 30:0.26800001 31:1.612 32:0.38800001 33:1.101 34:0.030999999 35:0.88200003 36:0.078000002 37:1.05 38:0.36199999 39:1.189 40:0.542 #
-25 1:9.1029997 2:2.8010001 3:2.1010001 4:3.8510001 5:3.5009999 6:8.0530005 7:2.1010001 8:4.902 9:3.151 10:10.504 11:2.451 12:4.902 13:5.2519999 14:1.401 15:6.302 16:6.302 17:7.0029998 18:4.552 19:4.552 20:1.751 21:0.52200001 22:0.40200001 23:0.57999998 24:0.285 25:0.40400001 26:0.472 27:0.155 28:0.108 29:0.435 30:0.42300001 31:0.255 32:0.255 33:0.44999999 34:0.32300001 35:0.034000002 36:-0.079999998 37:0.398 38:0.077 39:-0.105 40:0.071999997 #
-25 1:16.139 2:0.884 3:5.3060002 4:7.9590001 5:4.1999998 6:8.8430004 7:1.326 8:3.9790001 9:1.99 10:7.296 11:2.211 12:2.211 13:7.0739999 14:2.8740001 15:8.6219997 16:3.095 17:3.095 18:9.948 19:0.66299999 20:2.6530001 21:0.244 22:-0.0099999998 23:-0.29100001 24:-0.20200001 25:-0.25400001 26:0.017999999 27:0.052999999 28:0.124 29:-0.36500001 30:-0.29899999 31:0.14300001 32:-0.017000001 33:0.46700001 34:0.113 35:-0.014 36:0.066 37:-0.039999999 38:0.061999999 39:-0.34200001 40:0.17399999 #
-25 1:8.6780005 2:3.1559999 3:3.1559999 4:1.5779999 5:4.7329998 6:7.0999999 7:1.5779999 8:5.5219998 9:5.5219998 10:7.8889999 11:1.5779999 12:3.9449999 13:5.5219998 14:3.1559999 15:6.3109999 16:11.834 17:10.256 18:7.8889999 19:0 20:2.3670001 21:-0.63599998 22:-0.47600001 23:0.097000003 24:0.07 25:-0.442 26:-0.23100001 27:-0.24699999 28:-0.127 29:-0.022 30:0.148 31:0.301 32:0.074000001 33:0.145 34:-0.056000002 35:-0.31299999 36:0.093999997 37:0.24699999 38:-0.0049999999 39:-0.061000001 40:-0.33000001 #
-25 1:19.594999 2:0.78399998 3:3.9189999 4:5.0949998 5:3.9189999 6:5.0949998 7:2.743 8:5.0949998 9:1.176 10:12.149 11:1.96 12:1.96 13:7.0539999 14:6.6620002 15:6.2709999 16:5.0949998 17:7.0539999 18:3.9189999 19:0.78399998 20:1.176 21:0.26499999 22:0.20100001 23:-0.149 24:-0.252 25:0.134 26:0.011 27:-0.273 28:-0.055 29:0.242 30:-0.035 31:0.050000001 32:-0.219 33:-0.426 34:-0.49599999 35:0.41499999 36:0.219 37:-0.69099998 38:-0.546 39:0.052000001 40:0.050000001 #
25 1:8.9949999 2:0.69199997 3:6.2270002 4:8.3030005 5:4.151 6:2.076 7:1.3839999 8:6.9190001 9:8.3030005 10:10.379 11:3.46 12:0.69199997 13:5.5349998 14:12.454 15:1.3839999 16:4.8429999 17:5.5349998 18:7.6110001 19:0 20:1.3839999 21:-0.35299999 22:0.0020000001 23:-0.57200003 24:-1.045 25:0.067000002 26:0.667 27:1.115 28:1.2309999 29:-0.98400003 30:-1.302 31:-0.57499999 32:-0.059 33:1.808 34:1.5779999 35:-0.257 36:0.34099999 37:-0.435 38:-1.46 39:-0.537 40:0.44400001 #
25 1:9.6169996 2:0 3:3.2060001 4:11.22 5:2.404 6:2.404 7:0.801 8:5.6100001 9:7.2129998 10:12.822 11:4.8080001 12:0 13:4.007 14:12.021 15:1.603 16:5.6100001 17:8.0139999 18:7.2129998 19:0 20:1.603 21:-0.142 22:-0.148 23:-0.51499999 24:-0.75700003 25:0.30199999 26:0.41999999 27:0.93000001 28:1.008 29:-1.089 30:-0.82800001 31:-0.19400001 32:0.116 33:1.077 34:1.286 35:-0.205 36:-0.266 37:-0.068000004 38:-0.57800001 39:-0.40000001 40:-0.124 #
25 1:13.098 2:0 3:9.2040005 4:10.62 5:2.1240001 6:4.2480001 7:1.062 8:1.77 9:6.7259998 10:6.7259998 11:1.062 12:3.8940001 13:1.062 14:3.1860001 15:6.3720002 16:4.6020002 17:3.1860001 18:2.4779999 19:1.062 20:0.708 21:0.20200001 22:1.392 23:0.235 24:1.233 25:-0.13699999 26:0.99299997 27:0.93800002 28:2.0780001 29:0.65100002 30:1.656 31:-0.035 32:1.207 33:0.30500001 34:1.1950001 35:0.072999999 36:1.316 37:0.87599999 38:1.6339999 39:0.107 40:0.889 #
25 1:6.7249999 2:4.0349998 3:3.3629999 4:5.3800001 5:5.3800001 6:8.743 7:2.6900001 8:2.0179999 9:4.7080002 10:10.761 11:2.0179999 12:8.0699997 13:1.345 14:4.0349998 15:8.0699997 16:4.7080002 17:6.053 18:4.0349998 19:4.0349998 20:5.3800001 21:-0.235 22:0.11 23:0.83499998 24:0.20999999 25:-0.146 26:-0.152 27:0.107 28:-0.40099999 29:-0.27900001 30:-0.80199999 31:0.018999999 32:-0.028000001 33:-0.18000001 34:-0.20299999 35:-0.182 36:0.161 37:0.115 38:0.013 39:-0.29899999 40:-0.21799999 #
25 1:5.381 2:2.198 3:6.7449999 4:9.6239996 5:2.5009999 6:5.6079998 7:3.1830001 8:4.3200002 9:2.8800001 10:7.0479999 11:1.288 12:4.395 13:5.4559999 14:4.3200002 15:3.638 16:9.776 17:10.003 18:5.0019999 19:1.364 20:3.4100001 21:-0.066 22:0.243 23:0.178 24:0.156 25:-0.308 26:0.013 27:-0.14 28:0.215 29:-0.15099999 30:0.161 31:-0.064999998 32:0.15899999 33:-0.142 34:0.108 35:0.248 36:0.241 37:0.057 38:0.227 39:0.257 40:0.46900001 #
25 1:10.733 2:1.15 3:5.3660002 4:1.533 5:4.217 6:11.883 7:1.15 8:3.8329999 9:4.9829998 10:9.9659996 11:2.3 12:3.8329999 13:3.45 14:3.0669999 15:2.3 16:7.283 17:11.116 18:8.816 19:1.15 20:1.15 21:-0.17200001 22:-0.324 23:0.245 24:0.178 25:0.0089999996 26:-0.28099999 27:0.103 28:0.024 29:0.257 30:-0.101 31:0.301 32:0.059 33:-0.125 34:-0.26800001 35:0.189 36:0.086999997 37:-0.096000001 38:-0.32800001 39:0.49700001 40:0.46700001 #
-25 1:18.483 2:0 3:0 4:4.6209998 5:4.6209998 6:13.862 7:0 8:9.2419996 9:3.4660001 10:5.776 11:6.9310002 12:0 13:1.155 14:2.3099999 15:1.155 16:4.6209998 17:2.3099999 18:3.4660001 19:1.155 20:3.4660001 21:1.505 22:0.36399999 23:0.70300001 24:-0.071999997 25:1.276 26:0.294 27:1.4119999 28:0.41499999 29:1.334 30:0.54000002 31:0.81300002 32:-0.086999997 33:1.196 34:0.017999999 35:0.912 36:-0.25 37:0.78200001 38:-0.039000001 39:1.492 40:0.75199997 #
13.354276381059685618879484536592 1:16.461 2:0 3:2.0580001 4:2.0580001 5:2.0580001 6:6.1729999 7:0 8:2.0580001 9:8.2299995 10:10.288 11:8.2299995 12:6.1729999 13:5.1440001 14:4.1149998 15:6.1729999 16:2.0580001 17:9.2589998 18:5.1440001 19:0 20:1.029 21:-0.15099999 22:0.29100001 23:0.574 24:-0.12800001 25:0.66799998 26:0.22400001 27:-0.26899999 28:0.33399999 29:1.1849999 30:0.48699999 31:0.17299999 32:0.114 33:0.44 34:0.75099999 35:0.043000001 36:0.38499999 37:-0.77999997 38:-0.287 39:-0.29100001 40:-0.46799999 #
25 1:19.656 2:0.50400001 3:6.0479999 4:3.0239999 5:2.016 6:8.0640001 7:2.52 8:4.0320001 9:0.50400001 10:12.6 11:1.512 12:0 13:8.0640001 14:2.52 15:8.5679998 16:5.5440001 17:4.0320001 18:7.0560002 19:0.50400001 20:2.52 21:0.118 22:-0.25099999 23:0.061000001 24:0.126 25:-0.34 26:-0.27200001 27:-0.102 28:-0.035 29:-0.154 30:0.001 31:-0.24600001 32:-0.31900001 33:0.76800001 34:0.574 35:0.264 36:-0.36700001 37:0.237 38:0.183 39:0.50800002 40:-0.041999999 #
-8.3836138763382415106661937898025 1:9.7469997 2:0.51800001 3:5.0890002 4:5.7789998 5:5.52 6:6.6409998 7:1.294 8:4.8299999 9:4.4850001 10:11.472 11:1.294 12:2.9330001 13:4.1399999 14:6.1240001 15:6.6409998 16:8.0209999 17:6.5549998 18:4.744 19:1.725 20:2.329 21:0.124 22:0.086999997 23:-0.156 24:-0.18099999 25:0.064000003 26:-0.023 27:0.26800001 28:0.23100001 29:-0.17900001 30:-0.067000002 31:-0.19400001 32:-0.18799999 33:0.117 34:0.0099999998 35:0.097000003 36:0.133 37:0.011 38:0.061999999 39:-0.054000001 40:-0.043000001 #
25 1:4.454 2:1.909 3:3.8180001 4:5.0910001 5:7.6360002 6:7.6360002 7:2.5450001 8:5.0910001 9:6.3629999 10:7 11:2.5450001 12:0.63599998 13:2.5450001 14:9.5450001 15:8.908 16:7.6360002 17:5.0910001 18:4.454 19:1.909 20:1.273 21:0.55500001 22:0.83399999 23:1.187 24:1 25:0.58499998 26:0.44800001 27:0.38 28:0.022 29:0.58700001 30:0.81 31:0.72399998 32:0.36300001 33:-0.78100002 34:-0.68699998 35:-1.024 36:-0.59500003 37:-0.89300001 38:-1.186 39:1.006 40:0.58099997 #
-25 1:9.625 2:1.031 3:6.875 4:6.5310001 5:4.125 6:5.5 7:1.719 8:5.1560001 9:7.5619998 10:8.5939999 11:2.4059999 12:5.1560001 13:4.8119998 14:2.4059999 15:5.1560001 16:7.9060001 17:6.1869998 18:4.4689999 19:1.375 20:2.4059999 21:-0.13500001 22:-0.148 23:-0.75800002 24:-0.45699999 25:-0.025 26:0.153 27:0.61299998 28:0.373 29:-0.28400001 30:0.105 31:0.182 32:0.303 33:0.19499999 34:0.16500001 35:0.098999999 36:0.26100001 37:-0.113 38:0.28200001 39:-0.056000002 40:0.24600001 #
25 1:13.154 2:0 3:5.6370001 4:5.9060001 5:4.2950001 6:8.8590002 7:1.8789999 8:6.9790001 9:3.221 10:6.4429998 11:4.8319998 12:2.684 13:6.4429998 14:3.49 15:4.027 16:3.49 17:8.8590002 18:5.0999999 19:2.148 20:2.148 21:-0.46399999 22:-0.639 23:-0.31400001 24:-0.243 25:0.37799999 26:-0.175 27:0.134 28:0.133 29:-0.030999999 30:-0.183 31:0.014 32:0.024 33:0.146 34:0.078000002 35:0.36199999 36:-0.050000001 37:0.36500001 38:0.041000001 39:0.46700001 40:0.36399999 #
25 1:6.1500001 2:2.392 3:4.4419999 4:6.4920001 5:3.075 6:4.0999999 7:2.05 8:4.4419999 9:6.8330002 10:14.35 11:2.392 12:4.4419999 13:3.7579999 14:7.8579998 15:3.7579999 16:8.5419998 17:3.075 18:2.05 19:2.392 20:1.025 21:0.17900001 22:0.40900001 23:0.208 24:0.145 25:0.55599999 26:0.66900003 27:-0.096000001 28:0.207 29:0.54900002 30:0.46599999 31:0.105 32:0.435 33:0.66399997 34:0.46900001 35:0.197 36:0.35699999 37:-0.098999999 38:0.227 39:0.14300001 40:0.59200001 #
25 1:6.9180002 2:1.628 3:7.461 4:7.7319999 5:4.8829999 6:6.6469998 7:2.984 8:6.9180002 9:6.375 10:12.072 11:1.628 12:4.2049999 13:4.8829999 14:4.3410001 15:4.2049999 16:6.7820001 17:3.6619999 18:4.2049999 19:0.81400001 20:3.256 21:-0.086000003 22:-0.26300001 23:-0.67400002 24:-0.486 25:0.0049999999 26:0.285 27:-0.15700001 28:0.021 29:-0.40000001 30:-0.35100001 31:-0.56800002 32:-0.25 33:0.13600001 34:0.44800001 35:-0.074000001 36:-0.308 37:0.063000001 38:0.19400001 39:0.322 40:0.546 #
-25 1:5.7729998 2:6.2750001 3:5.7729998 4:8.0319996 5:3.0120001 6:3.7650001 7:1.0039999 8:3.263 9:7.7810001 10:7.7810001 11:1.255 12:4.7690001 13:5.02 14:3.0120001 15:6.0240002 16:9.0360003 17:5.02 18:4.0159998 19:0.25099999 20:1.757 21:0.55199999 22:0.69499999 23:0.273 24:0.23999999 25:0.40400001 26:0.73500001 27:0.114 28:0.56 29:0.064999998 30:0.308 31:0.132 32:0.271 33:-0.077 34:0.53600001 35:0.949 36:1.016 37:0.064000003 38:0.442 39:-0.098999999 40:0.198 #
-25 1:5.4959998 2:4.5799999 3:6.4120002 4:6.4120002 5:3.664 6:11.909 7:5.4959998 8:3.664 9:3.664 10:10.076 11:2.7479999 12:5.4959998 13:1.832 14:3.664 15:4.5799999 16:10.992 17:3.664 18:4.5799999 19:0.91600001 20:1.832 21:-0.287 22:0.061000001 23:0.13 24:-0.046999998 25:-0.498 26:-0.35299999 27:-0.53399998 28:-0.79299998 29:0.022 30:0.31200001 31:-0.17 32:-0.125 33:0.2 34:0.1 35:-0.141 36:-0.30700001 37:0.33399999 38:-0.0080000004 39:0.017999999 40:0.40700001 #
-25 1:18.642 2:0.31099999 3:4.3499999 4:8.3889999 5:2.175 6:3.1070001 7:1.243 8:3.418 9:8.0780001 10:9.9420004 11:1.243 12:1.864 13:4.039 14:9.0100002 15:5.592 16:2.796 17:5.2820001 18:4.6599998 19:0 20:2.175 21:0.081 22:0.105 23:-0.083999999 24:0.23 25:-0.64300001 26:0.234 27:0.213 28:0.926 29:0.493 30:0.045000002 31:-0.33399999 32:-0.025 33:0.29300001 34:0.662 35:-0.20299999 36:0.35800001 37:0.42399999 38:0.65499997 39:0.061999999 40:0.192 #
-25 1:13.794 2:1.971 3:5.9120002 4:13.794 5:2.9560001 6:2.9560001 7:2.9560001 8:0.98500001 9:0 10:14.779 11:2.9560001 12:1.971 13:3.941 14:5.9120002 15:6.8969998 16:6.8969998 17:1.971 18:6.8969998 19:5.9120002 20:1.971 21:0.028000001 22:-0.72000003 23:0.72000003 24:1.3049999 25:-0.048 26:-0.70700002 27:-0.93599999 28:-0.62099999 29:-0.51999998 30:-0.352 31:0.22400001 32:-0.49000001 33:0.19599999 34:0.91600001 35:-1.152 36:-1.961 37:0.329 38:0.477 39:-0.69599998 40:-1.414 #
24.211948332800712790913166827522 1:0.43799999 2:0 3:7.4380002 4:9.6260004 5:0.875 6:20.565001 7:12.251 8:1.75 9:12.251 10:4.375 11:0.43799999 12:1.75 13:0.875 14:0 15:1.313 16:4.375 17:2.625 18:5.2509999 19:0 20:2.625 21:0.65100002 22:1.0319999 23:0.98799998 24:1.99 25:0.30599999 26:1.0930001 27:0.68699998 28:1.332 29:0.14399999 30:0.61500001 31:0.098999999 32:0.67500001 33:-0.57300001 34:0.12 35:-0.0049999999 36:1.072 37:0.028999999 38:0.597 39:-0.25299999 40:0.57999998 #
25 1:16.705999 2:0 3:2.0880001 4:6.2649999 5:3.132 6:6.2649999 7:1.044 8:4.177 9:2.0880001 10:7.309 11:5.2210002 12:2.0880001 13:4.177 14:2.0880001 15:11.485 16:5.2210002 17:4.177 18:6.2649999 19:2.0880001 20:1.044 21:1.207 22:0.498 23:-0.25 24:-0.071999997 25:0.68699998 26:-0.044 27:1.132 28:0.185 29:0.18700001 30:-0.092 31:0.083999999 32:-0.35100001 33:0.498 34:0.72600001 35:1.624 36:0.63800001 37:1.169 38:0.96499997 39:-0.80800003 40:-0.91100001 #
-25 1:5.0640001 2:2.7620001 3:4.1440001 4:4.6040001 5:6.9060001 6:5.0640001 7:0.921 8:9.2080002 9:9.6689997 10:12.431 11:2.302 12:5.0640001 13:0.921 14:5.9850001 15:4.6040001 16:8.2869997 17:2.7620001 18:3.223 19:2.302 20:1.842 21:-0.090999998 22:-0.13 23:-0.086999997 24:-0.026000001 25:0.83200002 26:0.55500001 27:0.41 28:0.52999997 29:-0.164 30:-0.205 31:0.116 32:0.34 33:1.075 34:0.88999999 35:-1.1339999 36:-0.82499999 37:-0.50999999 38:-0.46200001 39:0.35800001 40:0.46200001 #
-25 1:11.402 2:0.33000001 3:6.4450002 4:5.618 5:2.809 6:6.7750001 7:1.1569999 8:4.296 9:5.7839999 10:5.7839999 11:0.991 12:5.7839999 13:1.1569999 14:3.47 15:6.7750001 16:7.7659998 17:7.1059999 18:5.9489999 19:1.818 20:2.809 21:-0.112 22:0.257 23:0.077 24:0.155 25:0.16 26:0.41100001 27:0.414 28:0.64499998 29:0.090999998 30:0.34799999 31:0.333 32:0.546 33:0.63700002 34:0.59799999 35:0.079999998 36:0.329 37:-0.211 38:0.336 39:0.49599999 40:0.38699999 #
25 1:5.5669999 2:2.2609999 3:5.5669999 4:7.6539998 5:3.566 6:7.0450001 7:1.827 8:4.8709998 9:4.1750002 10:7.132 11:1.827 12:5.7410002 13:5.8280001 14:4.6100001 15:3.4790001 16:10.003 17:8.3500004 18:5.915 19:1.131 20:3.6530001 21:0.0020000001 22:0.31900001 23:-0.033 24:0.034000002 25:-0.373 26:-0.109 27:-0.2 28:0.061999999 29:-0.092 30:-0.046999998 31:-0.086999997 32:-0.0070000002 33:0.14399999 34:0.14 35:0.186 36:0.123 37:-0.098999999 38:-0.035999998 39:-0.052999999 40:-0.077 #
25 1:12.825 2:0.81900001 3:3.2739999 4:7.3670001 5:3.5469999 6:7.9130001 7:1.637 8:2.7290001 9:2.7290001 10:12.825 11:0.546 12:1.637 13:7.0949998 14:3.0020001 15:9.2779999 16:3.8199999 17:5.4569998 18:9.0050001 19:0.81900001 20:2.4560001 21:0.171 22:0.184 23:-0.44800001 24:-0.32300001 25:0.117 26:0.113 27:0.278 28:0.25600001 29:-0.41499999 30:-0.215 31:0.18700001 32:0.35100001 33:-0.079999998 34:0.292 35:0.34099999 36:0.222 37:-0.192 38:-0.20299999 39:0.44800001 40:0.138 #
25 1:15.696 2:0 3:5.5869999 4:6.651 5:1.862 6:5.8530002 7:1.064 8:3.99 9:3.724 10:10.375 11:2.3940001 12:1.596 13:3.4579999 14:7.4489999 15:8.2469997 16:3.724 17:5.5869999 18:9.0450001 19:0.53200001 20:1.33 21:-0.55800003 22:-0.18000001 23:0.55500001 24:0.52899998 25:-0.43599999 26:-0.155 27:0.30599999 28:0.42199999 29:-0.025 30:0.18000001 31:-0.17399999 32:0.18799999 33:0.38499999 34:0.41800001 35:0.015 36:0.089000002 37:-0.37599999 38:-0.107 39:0.40400001 40:0.35499999 #
25 1:11.347 2:1.056 3:5.5419998 4:4.2220001 5:5.2779999 6:12.667 7:1.319 8:7.125 9:3.1670001 10:4.2220001 11:3.431 12:4.4860001 13:3.694 14:7.6529999 15:4.2220001 16:6.8610001 17:4.75 18:5.5419998 19:0.792 20:2.6389999 21:-0.38299999 22:-0.34900001 23:-0.255 24:-0.667 25:0.35800001 26:0.26899999 27:-0.037 28:0.26699999 29:0.12 30:0.227 31:-0.027000001 32:-0.20100001 33:-0.17299999 34:-0.124 35:0.551 36:0.523 37:-0.16599999 38:-0.103 39:0.086999997 40:0.07 #
25 1:4.098 2:3.552 3:4.645 4:7.6500001 5:6.0110002 6:7.9229999 7:0 8:10.109 9:11.201 10:8.4689999 11:1.6390001 12:7.3769999 13:3.0050001 14:3.0050001 15:3.0050001 16:6.0110002 17:4.098 18:5.191 19:1.0930001 20:3.552 21:-0.28600001 22:-0.142 23:-0.484 24:-0.149 25:-0.242 26:-0.186 27:-0.133 28:-0.003 29:-0.373 30:-0.359 31:-0.192 32:-0.101 33:0.101 34:0.477 35:0.039999999 36:0.20999999 37:-0.368 38:-0.255 39:0.48100001 40:0.33000001 #
-25 1:8.8690004 2:0 3:2.5339999 4:3.8010001 5:3.8010001 6:13.938 7:1.267 8:1.689 9:5.0679998 10:6.7579999 11:3.3789999 12:4.224 13:4.224 14:2.5339999 15:2.5339999 16:8.8690004 17:9.7139997 18:11.404 19:1.689 20:3.8010001 21:-0.039000001 22:-0.40000001 23:0.176 24:0.104 25:0.081 26:-0.25099999 27:0.022 28:-0.34799999 29:0.602 30:0.27700001 31:-0.037 32:0.075000003 33:0.373 34:0.27399999 35:0.0070000002 36:-0.352 37:-0.082999997 38:-0.176 39:-0.059999999 40:-0.34 #
-10.242083235275105224104663648177 1:8.3889999 2:0 3:8.3889999 4:15.579 5:1.198 6:7.1900001 7:0 8:7.1900001 9:5.9920001 10:7.1900001 11:3.595 12:7.1900001 13:1.198 14:7.1900001 15:1.198 16:3.595 17:2.3970001 18:5.9920001 19:0 20:4.7930002 21:0.493 22:0.69199997 23:-0.80199999 24:-0.60299999 25:0.078000002 26:0.47 27:0.94700003 28:1.501 29:-0.28 30:-0.050999999 31:0.14300001 32:0.64399999 33:0.611 34:0.61900002 35:-0.93800002 36:-0.13600001 37:-0.97000003 38:-0.55900002 39:-0.278 40:0.153 #
25 1:10.603 2:0 3:7.776 4:2.8280001 5:1.414 6:10.603 7:0.70700002 8:3.5339999 9:1.414 10:4.948 11:2.8280001 12:3.5339999 13:5.6550002 14:2.1210001 15:15.552 16:2.1210001 17:4.2410002 18:7.0689998 19:0.70700002 20:5.6550002 21:0.921 22:0.86500001 23:-0.75800002 24:-0.071999997 25:0.198 26:-0.36899999 27:0.83600003 28:0.31099999 29:0.39199999 30:0.792 31:-0.064000003 32:0.391 33:0.84600002 34:0.75400001 35:0.80699998 36:0.15000001 37:-0.055 38:-0.219 39:0.62400001 40:0.33899999 #
25 1:4.0229998 2:5.8119998 3:2.2349999 4:4.9169998 5:4.9169998 6:4.4699998 7:1.788 8:7.1529999 9:6.2589998 10:7.5999999 11:3.576 12:6.7059999 13:4.0229998 14:4.9169998 15:4.0229998 16:9.3879995 17:3.1289999 18:4.0229998 19:3.1289999 20:4.4699998 21:0.329 22:0.152 23:0.64499998 24:0.134 25:0.208 26:0.223 27:-0.197 28:-0.287 29:0.30000001 30:0.113 31:0.14300001 32:0.097000003 33:0.191 34:0.43200001 35:-0.090999998 36:-0.013 37:0.634 38:0.30199999 39:0.26800001 40:-0.145 #
14.511900812058982523922168184072 1:20.603001 2:0 3:4.263 4:8.5249996 5:1.421 6:4.973 7:1.421 8:3.552 9:7.8150001 10:5.684 11:0.70999998 12:2.131 13:6.3940001 14:4.263 15:9.2360001 16:3.552 17:2.131 18:5.684 19:1.421 20:1.421 21:-0.51700002 22:0.667 23:-0.41299999 24:0.384 25:1.194 26:1.1390001 27:0.14 28:0.57200003 29:-0.0070000002 30:0.484 31:-0.056000002 32:0.36199999 33:-0.185 34:0.17 35:-1.05 36:-0.17299999 37:0.061999999 38:0.38299999 39:0.92500001 40:0.72299999 #
25 1:12.791 2:0 3:4.8909998 4:3.01 5:4.138 6:10.91 7:0.37599999 8:4.138 9:2.257 10:10.534 11:0.37599999 12:4.138 13:4.138 14:4.5139999 15:2.257 16:8.276 17:8.6529999 18:9.0290003 19:1.1289999 20:2.6329999 21:0.405 22:-0.037 23:0.37 24:-0.13 25:-0.018999999 26:-0.47299999 27:0.25099999 28:-0.018999999 29:0.308 30:0.138 31:0.708 32:0.361 33:-0.167 34:-0.373 35:0.189 36:0.022 37:-0.126 38:-0.45500001 39:0.63200003 40:0.228 #
25 1:14.295 2:2.0420001 3:7.658 4:4.0840001 5:3.5739999 6:9.6999998 7:1.5319999 8:1.021 9:1.5319999 10:13.784 11:3.5739999 12:1.021 13:8.1680002 14:2.553 15:9.6999998 16:4.5949998 17:2.553 18:6.6370001 19:1.5319999 20:2.0420001 21:-0.162 22:-0.082000002 23:-0.114 24:0.045000002 25:-0.55500001 26:-0.0080000004 27:0.29499999 28:0.51999998 29:0.241 30:0.131 31:0.29899999 32:-0.154 33:-0.19599999 34:-0.055 35:-0.44600001 36:-0.18799999 37:-0.154 38:-0.266 39:-0.51700002 40:-0.229 #
-25 1:13.348 2:0.95300001 3:6.197 4:5.7199998 5:2.8599999 6:12.871 7:1.4299999 8:3.3369999 9:7.151 10:10.488 11:0.95300001 12:0.477 13:4.7670002 14:1.4299999 15:9.0570002 16:3.8139999 17:5.244 18:6.197 19:1.9069999 20:0 21:0.125 22:0.75999999 23:-0.79799998 24:-0.39500001 25:-0.53600001 26:0.068000004 27:0.38100001 28:0.35499999 29:0.34999999 30:0.027000001 31:-0.132 32:0.37 33:-0.69700003 34:-0.39199999 35:-0.025 36:0.66500002 37:0.648 38:0.68300003 39:0.061999999 40:0.28099999 #
-4.1439722007117474333881546044722 1:7.7789998 2:3.8900001 3:4.862 4:4.862 5:5.8340001 6:1.9450001 7:0.972 8:4.862 9:0.972 10:18.476 11:3.8900001 12:0.972 13:6.8070002 14:0 15:3.8900001 16:3.8900001 17:1.9450001 18:2.9170001 19:2.9170001 20:2.9170001 21:1.404 22:0.926 23:0.85100001 24:0.88099998 25:0.285 26:0.29800001 27:0.69700003 28:0.43099999 29:1.448 30:1.4809999 31:1.147 32:0.359 33:1.215 34:0.75099999 35:0.472 36:0.41100001 37:1.149 38:0.58899999 39:0.60799998 40:-0.0020000001 #
-25 1:13.51 2:0.90100002 3:8.1059999 4:6.3049998 5:2.7019999 6:4.954 7:3.8280001 8:3.8280001 9:0.90100002 10:7.6560001 11:1.801 12:1.801 13:5.6290002 14:3.6029999 15:9.2320004 16:3.6029999 17:6.7550001 18:8.7819996 19:1.351 20:3.8280001 21:0.14 22:-0.063000001 23:-0.65600002 24:-0.495 25:-0.066 26:0.118 27:-0.164 28:-0.0070000002 29:0.292 30:0.292 31:0.032000002 32:-0.105 33:0.122 34:0.266 35:0.29699999 36:0.45300001 37:0.23899999 38:0.456 39:-0.193 40:-0.034000002 #
25 1:5.355 2:3.5009999 3:6.1789999 4:5.5609999 5:4.737 6:7.2090001 7:3.2950001 8:4.5310001 9:6.1789999 10:5.1490002 11:1.442 12:3.707 13:4.9429998 14:4.119 15:6.5910001 16:7.415 17:6.1789999 18:5.7670002 19:2.678 20:4.9429998 21:-0.671 22:-0.442 23:0.13699999 24:0.090000004 25:-0.19599999 26:-0.105 27:0.13600001 28:0.25 29:0.037 30:0.066 31:0.025 32:-0.0049999999 33:0.013 34:-0.059 35:0.61699998 36:0.34400001 37:0.088 38:0.063000001 39:0.041000001 40:0.088 #
-25 1:4.7880001 2:5.1300001 3:4.0180001 4:4.6170001 5:4.1890001 6:7.0960002 7:2.8210001 8:5.1300001 9:6.5830002 10:7.9510002 11:2.223 12:2.7360001 13:4.4460001 14:3.4200001 15:2.4790001 16:7.8649998 17:8.0360003 18:9.3190002 19:1.368 20:3.0780001 21:0.117 22:-0.015 23:0.211 24:0.108 25:0.23899999 26:0.064999998 27:0.248 28:0.147 29:0.057 30:-0.035 31:0.28600001 32:0.109 33:0.163 34:0.12 35:0.102 36:-0.064000003 37:0.26699999 38:0.252 39:0.223 40:0.108 #
25 1:16.299 2:0 3:3.0179999 4:1.811 5:6.0370002 6:8.4519997 7:1.207 8:6.0370002 9:3.0179999 10:8.4519997 11:2.415 12:3.0179999 13:1.811 14:1.811 15:1.811 16:4.829 17:3.622 18:7.244 19:1.207 20:1.811 21:1.275 22:0.58499998 23:0.59899998 24:0.219 25:1.056 26:0.69999999 27:1.28 28:0.78799999 29:0.76099998 30:0.183 31:1.048 32:0.40599999 33:1.679 34:0.97399998 35:0.85900003 36:0.23899999 37:0.53500003 38:0.27900001 39:1.676 40:0.94700003 #
-24.626128009153411824172508204356 1:14.622 2:0.60900003 3:6.3969998 4:4.5689998 5:3.96 6:5.4829998 7:1.523 8:0.91399997 9:1.8279999 10:12.794 11:0.91399997 12:1.523 13:5.1789999 14:3.3510001 15:11.88 16:6.092 17:4.5689998 18:7.3109999 19:2.132 20:3.3510001 21:0.111 22:0.061999999 23:-0.73000002 24:-0.32600001 25:-0.064999998 26:0.214 27:1.173 28:0.472 29:0.28200001 30:0.36899999 31:-0.82499999 32:-0.50199997 33:0.153 34:0.579 35:0.25 36:0.26899999 37:-0.29800001 38:0.015 39:-0.41299999 40:0.208 #
25 1:11.921 2:0 3:5.2340002 4:3.78 5:4.0710001 6:10.177 7:0.87199998 8:5.2340002 9:8.4320002 10:6.6869998 11:0.87199998 12:4.652 13:4.3610001 14:3.78 15:1.454 16:6.9780002 17:8.1409998 18:8.4320002 19:2.326 20:3.198 21:-0.071999997 22:-0.32800001 23:-0.123 24:-0.245 25:0.233 26:0.186 27:0.081 28:0.29800001 29:0.064000003 30:-0.015 31:0.068999998 32:-0.156 33:-0.035999998 34:-0.22 35:0.49700001 36:0.32699999 37:-0.322 38:-0.51899999 39:0.016000001 40:-0.338 #
-25 1:8.0609999 2:4.8369999 3:4.8369999 4:12.897 5:2.687 6:6.9860001 7:1.075 8:9.1359997 9:8.5979996 10:6.4489999 11:1.075 12:3.224 13:4.2989998 14:3.224 15:3.224 16:4.2989998 17:3.224 18:6.4489999 19:1.612 20:5.9109998 21:-0.331 22:0.077 23:-0.83499998 24:-0.87199998 25:-0.87699997 26:-0.47 27:0.17399999 28:0.015 29:0.0080000004 30:0.308 31:-0.193 32:0.215 33:-0.43399999 34:0.035999998 35:0.479 36:0.68099999 37:0.168 38:0.13699999 39:-0.352 40:-0.039000001 #
-23.009728611069732551186461932957 1:7.9349999 2:3.174 3:3.174 4:9.5220003 5:3.174 6:9.5220003 7:1.587 8:11.109 9:4.7610002 10:7.9349999 11:9.5220003 12:3.174 13:3.174 14:4.7610002 15:1.587 16:7.9349999 17:3.174 18:4.7610002 19:0 20:0 21:-0.29499999 22:-0.498 23:-1.273 24:-1.164 25:1.225 26:0.81999999 27:0.56099999 28:0.65899998 29:-0.73100001 30:-0.94 31:0.54299998 32:0.054000001 33:0.31 34:0.161 35:-0.098999999 36:0.012 37:0.41999999 38:-0.097000003 39:0.338 40:0.0099999998 #
25 1:4.6269999 2:3.365 3:4.2069998 4:7.993 5:4.2069998 6:4.6269999 7:1.262 8:4.2069998 9:5.8889999 10:7.151 11:2.1029999 12:6.7309999 13:2.5239999 14:2.5239999 15:5.0479999 16:10.517 17:6.7309999 18:5.0479999 19:2.5239999 20:4.2069998 21:0.097000003 22:0.26199999 23:0.030999999 24:-0.023 25:0.40000001 26:0.58200002 27:-0.345 28:-0.17900001 29:0.207 30:-0.193 31:0.79799998 32:0.64099997 33:0.094999999 34:-0.14399999 35:0.55699998 36:0.53200001 37:0.53299999 38:0.47 39:-0.33199999 40:0.51800001 #
-25 1:19.434999 2:0 3:6.4780002 4:8.0979996 5:1.62 6:8.0979996 7:3.2390001 8:4.0489998 9:1.62 10:11.337 11:1.62 12:2.4289999 13:1.62 14:4.8590002 15:10.527 16:4.8590002 17:4.8590002 18:6.4780002 19:0 20:0.81 21:0.226 22:0.052000001 23:-0.245 24:0.035 25:-0.025 26:0.53299999 27:-1.16 28:-0.26199999 29:-1.1059999 30:-0.26199999 31:-0.46900001 32:-0.34400001 33:-0.162 34:0.542 35:0.50700003 36:-0.050000001 37:-0.76800001 38:-0.50099999 39:0.78500003 40:0.64399999 #
19.990989427412575452081000548787 1:4.6529999 2:4.6529999 3:7.191 4:4.23 5:1.2690001 6:4.6529999 7:2.115 8:4.23 9:7.191 10:12.69 11:0.42300001 12:3.3840001 13:4.23 14:4.23 15:3.8069999 16:10.152 17:6.7680001 18:4.6529999 19:2.961 20:0.84600002 21:0.37799999 22:0.51300001 23:0.223 24:0.36199999 25:0.55199999 26:0.241 27:0.21600001 28:0.29100001 29:0.72000003 30:0.255 31:-0.064000003 32:-0.206 33:0.31 34:0.322 35:0.112 36:0.109 37:0.15800001 38:0.47999999 39:0.34799999 40:0.35499999 #
-14.675665969753371342676473432221 1:6.309 2:0 3:2.1029999 4:1.051 5:4.2059999 6:3.154 7:0 8:6.309 9:0 10:10.514 11:7.3600001 12:17.874001 13:5.257 14:2.1029999 15:4.2059999 16:7.3600001 17:7.3600001 18:3.154 19:0 20:1.051 21:0.80299997 22:0.50599998 23:0.215 24:0.21799999 25:0.537 26:0.126 27:1.217 28:0.45100001 29:0.64600003 30:0.171 31:0.745 32:0.47799999 33:0.53299999 34:0.30599999 35:0.51800001 36:0.37799999 37:0.74900001 38:0.317 39:1.177 40:0.537 #
25 1:16.820999 2:0 3:5.7820001 4:4.7309999 5:3.154 6:8.9359999 7:4.2049999 8:4.2049999 9:2.1029999 10:12.09 11:2.628 12:0.52600002 13:7.3590002 14:3.154 15:7.8850002 16:4.2049999 17:4.7309999 18:5.257 19:0 20:3.6800001 21:0.20999999 22:0.037 23:0.061999999 24:0.111 25:-0.449 26:-0.537 27:-0.037999999 28:-0.206 29:-0.046999998 30:0.039000001 31:-0.176 32:-0.15700001 33:0.60799998 34:0.44100001 35:-0.382 36:-0.38800001 37:-0.40000001 38:-0.417 39:0.108 40:0.12899999 #
-10.685865068234393859825104300398 1:12.303 2:1.697 3:8.6969995 4:4.6659999 5:1.485 6:8.2720003 7:4.6659999 8:4.454 9:2.3329999 10:9.5450001 11:0.84799999 12:2.3329999 13:7.2119999 14:4.0300002 15:9.757 16:3.3940001 17:5.303 18:5.0910001 19:1.061 20:2.3329999 21:-0.041999999 22:0.28200001 23:-0.57200003 24:-0.101 25:-0.07 26:0.34999999 27:-0.016000001 28:-0.017999999 29:0.104 30:0.278 31:-0.29499999 32:0.245 33:0.075000003 34:0.458 35:0.066 36:0.27900001 37:-0.53899997 38:-0.29899999 39:0.21799999 40:0.114 #
25 1:5.1880002 2:3.6619999 3:3.6619999 4:7.934 5:2.7460001 6:6.1030002 7:2.1359999 8:7.934 9:5.493 10:7.934 11:1.831 12:7.0180001 13:2.441 14:5.493 15:3.6619999 16:8.2390003 17:5.1880002 18:6.7129998 19:2.7460001 20:3.0510001 21:-0.169 22:0.039999999 23:0.243 24:0.071999997 25:0.074000001 26:-0.093999997 27:-0.32499999 28:-0.30399999 29:0.154 30:0.15899999 31:0.20900001 32:0.34 33:0.169 34:0.405 35:-0.31200001 36:-0.131 37:0.27700001 38:0.20200001 39:0.17299999 40:-0.35600001 #
-25 1:12.805 2:1.201 3:6.803 4:8.4040003 5:6.0029998 6:6.0029998 7:2.8010001 8:1.601 9:1.601 10:12.005 11:1.601 12:2.0009999 13:5.6020002 14:2.401 15:9.2040005 16:4.402 17:7.6030002 18:3.201 19:0.80000001 20:3.602 21:-0.082000002 22:-0.017999999 23:-0.16500001 24:0.30599999 25:0.103 26:0.31099999 27:-0.093000002 28:-0.033 29:-0.176 30:-0.033 31:-0.34999999 32:-0.096000001 33:-0.54400003 34:-0.26699999 35:0.46000001 36:0.384 37:0.39500001 38:-0.050000001 39:0.366 40:-0.061999999 #
-14.785391773890891542464487429243 1:3.165 2:1.582 3:6.329 4:3.9560001 5:6.329 6:6.329 7:1.582 8:3.9560001 9:8.7030001 10:7.9120002 11:3.165 12:3.9560001 13:8.7030001 14:5.5380001 15:3.165 16:7.9120002 17:3.9560001 18:11.076 19:1.582 20:1.582 21:0.46599999 22:0.18000001 23:-0.039000001 24:0.50099999 25:0.42899999 26:0.43200001 27:-0.041999999 28:0.078000002 29:0.152 30:0.28400001 31:-0.38999999 32:-0.16500001 33:-0.75400001 34:-0.40799999 35:-0.77600002 36:-0.64399999 37:0.60500002 38:0.255 39:-0.31600001 40:-0.32600001 #
25 1:7.6290002 2:2.7739999 3:4.855 4:3.4679999 5:5.5479999 6:3.4679999 7:0.69400001 8:5.5479999 9:4.1609998 10:11.79 11:4.1609998 12:9.7089996 13:4.855 14:4.855 15:7.6290002 16:7.6290002 17:6.2420001 18:7.6290002 19:2.7739999 20:0.69400001 21:-0.25600001 22:0.074000001 23:-0.71799999 24:-0.68099999 25:-0.012 26:-0.31400001 27:-1.446 28:-0.87800002 29:0.456 30:0.228 31:0.31799999 32:0.34799999 33:-1.133 34:-0.82099998 35:0.028999999 36:-0.215 37:-0.51499999 38:-0.182 39:-0.177 40:-0.211 #
-25 1:4.6389999 2:0.71399999 3:3.2119999 4:5.71 5:3.9260001 6:4.9959998 7:2.4979999 8:6.4239998 9:6.4239998 10:9.2790003 11:1.071 12:4.9959998 13:5.71 14:6.7810001 15:1.784 16:12.491 17:6.7810001 18:6.7810001 19:1.428 20:3.2119999 21:0.064999998 22:0.059999999 23:0.198 24:0.011 25:0.19400001 26:0.24600001 27:0.259 28:0.13500001 29:0.11 30:0.213 31:-0.264 32:0.012 33:-0.057 34:-0.003 35:-0.25 36:-0.183 37:0.13600001 38:0.072999999 39:0.163 40:0.026000001 #
19.20957528419463855584581324365 1:18.115999 2:1.006 3:4.026 4:5.5349998 5:5.5349998 6:5.5349998 7:3.523 8:2.013 9:3.0190001 10:9.5609999 11:1.006 12:3.523 13:5.0320001 14:4.5289998 15:7.0450001 16:4.5289998 17:4.5289998 18:7.5479999 19:0.50300002 20:2.516 21:-0.106 22:-0.244 23:0.067000002 24:-0.025 25:0.122 26:0.119 27:0.15899999 28:0.121 29:0.19400001 30:0.132 31:0.20999999 32:0.054000001 33:-0.054000001 34:0.294 35:-0.077 36:-0.219 37:-0.449 38:-0.215 39:0.80599999 40:0.48199999 #
-25 1:5.6810002 2:3.7869999 3:4.9229999 4:5.302 5:5.6810002 6:5.302 7:2.2720001 8:4.9229999 9:6.4380002 10:7.1950002 11:3.7869999 12:6.4380002 13:2.651 14:3.408 15:2.651 16:7.1950002 17:10.225 18:4.1659999 19:1.8940001 20:6.4380002 21:-0.014 22:0.021 23:0.028999999 24:-0.249 25:0.19599999 26:0.36199999 27:0.059 28:0.125 29:0.19400001 30:0.113 31:-0.078000002 32:-0.20999999 33:0.117 34:0.057 35:0.154 36:-0.024 37:-0.759 38:-0.493 39:-0.034000002 40:0.075000003 #
25 1:5.427 2:2.714 3:4.6129999 4:8.4119997 5:2.714 6:4.8850002 7:2.4419999 8:3.5280001 9:8.4119997 10:7.598 11:0.81400001 12:2.4419999 13:3.799 14:2.9849999 15:3.256 16:7.3270001 17:6.513 18:3.799 19:2.714 20:2.4419999 21:0.73699999 22:1.165 23:0.47 24:0.94 25:0.041999999 26:0.52700001 27:0.597 28:0.99199998 29:0.42399999 30:0.90799999 31:0.32699999 32:0.56800002 33:0.91900003 34:1.438 35:0.32499999 36:0.787 37:0.25400001 38:0.88599998 39:0.024 40:0.83200002 #
11.339043506784555859212559880689 1:8.6450005 2:0 3:11.188 4:4.8309999 5:2.733 6:11.506 7:1.462 8:5.9120002 9:1.716 10:5.7210002 11:0.509 12:6.5469999 13:1.526 14:2.4159999 15:1.1440001 16:8.8360004 17:10.552 18:10.743 19:0.57200003 20:3.0510001 21:-0.414 22:-0.31900001 23:0.28200001 24:0.083999999 25:-0.20999999 26:-0.30599999 27:0.039999999 28:-0.027000001 29:-0.046999998 30:-0.15800001 31:0.30000001 32:0.116 33:0.085000001 34:0.123 35:0.27700001 36:0.052999999 37:0.18799999 38:0.169 39:0.093999997 40:0.057 #
24.588759359579029251108295284212 1:14.179 2:0 3:5.224 4:2.9849999 5:1.492 6:6.3429999 7:0.74599999 8:2.612 9:6.7160001 10:6.7160001 11:1.492 12:5.5970001 13:2.9849999 14:11.94 15:2.9849999 16:10.821 17:3.7309999 18:7.4619999 19:0.74599999 20:5.5970001 21:0.38600001 22:0.67500001 23:-0.059 24:-0.096000001 25:0.29300001 26:0.43200001 27:0.48300001 28:0.47999999 29:-0.145 30:-0.207 31:-0.113 32:-0.169 33:0.17900001 34:0.146 35:-0.46799999 36:-0.484 37:-0.67199999 38:-0.82999998 39:-0.082000002 40:-0.118 #
25 1:16.857 2:0.48199999 3:8.1879997 4:5.2979999 5:4.335 6:8.6689997 7:1.4450001 8:2.8900001 9:1.4450001 10:12.041 11:2.408 12:0.48199999 13:7.224 14:1.4450001 15:11.077 16:3.8529999 17:4.816 18:4.816 19:0.48199999 20:1.4450001 21:0.55599999 22:0.67000002 23:-0.215 24:0.102 25:-0.57599998 26:-0.044 27:-0.375 28:0.037 29:-0.097000003 30:-0.090000004 31:-0.377 32:-0.183 33:-0.0040000002 34:0.077 35:-0.26300001 36:-0.52499998 37:0.67699999 38:0.639 39:0.093999997 40:0.20299999 #
-25 1:11.625 2:0.51700002 3:4.908 4:9.0410004 5:3.0999999 6:6.4580002 7:1.808 8:3.0999999 9:3.0999999 10:6.4580002 11:2.0669999 12:1.55 13:7.4920001 14:4.1329999 15:8.783 16:9.3000002 17:5.1669998 18:5.4250002 19:3.0999999 20:1.033 21:-0.089000002 22:0.384 23:0.537 24:0.56599998 25:0.093999997 26:0.242 27:-0.45199999 28:-0.161 29:-0.22 30:-0.0099999998 31:0.0080000004 32:0.35100001 33:0.132 34:0.33700001 35:-0.50599998 36:0.12899999 37:0.124 38:0.26800001 39:-0.086000003 40:0.186 #
-25 1:10.523 2:0.55400002 3:7.4770002 4:6.2309999 5:5.677 6:7.7540002 7:3.323 8:2.908 9:3.1849999 10:7.0619998 11:1.8 12:2.631 13:5.677 14:5.1230001 15:7.3390002 16:4.1539998 17:5.816 18:9 19:0.96899998 20:2.631 21:-0.035 22:0.0089999996 23:-0.324 24:-0.278 25:0.086000003 26:0.18700001 27:-0.21600001 28:-0.054000001 29:0.30500001 30:0.2 31:-0.141 32:0.093000002 33:0.097000003 34:0.164 35:0.184 36:0.228 37:-0.017999999 38:-0.001 39:-0.18000001 40:-0.141 #
25 1:4.7459998 2:0 3:3.9549999 4:5.5370002 5:7.9099998 6:9.4919996 7:0.79100001 8:7.119 9:5.5370002 10:11.865 11:1.582 12:6.3280001 13:3.9549999 14:3.9549999 15:3.9549999 16:8.7010002 17:6.3280001 18:6.3280001 19:2.3729999 20:3.9549999 21:-0.192 22:0.089000002 23:0.046 24:-0.39700001 25:-0.294 26:-0.87 27:-0.0020000001 28:-0.447 29:-0.454 30:-0.048 31:0.50300002 32:0.139 33:-1.2 34:-1.081 35:-0.491 36:-0.456 37:-0.227 38:-0.106 39:0.322 40:0.74900001 #
-2.3791169931203226539651041093748e-06 1:3.3759999 2:0 3:6.0780001 4:7.428 5:2.701 6:4.7270002 7:0 8:6.7529998 9:6.7529998 10:12.831 11:2.026 12:6.0780001 13:3.3759999 14:19.584 15:3.3759999 16:3.3759999 17:2.026 18:9.4540005 19:0.67500001 20:0 21:-0.74400002 22:-0.212 23:-0.458 24:-0.083999999 25:-0.55900002 26:-0.46900001 27:-0.373 28:0.025 29:-0.0040000002 30:0.74199998 31:-0.223 32:-0.602 33:0.125 34:-0.097999997 35:0.41499999 36:0.17200001 37:0.662 38:0.84799999 39:-0.043000001 40:0.26100001 #
25 1:13.852 2:1.413 3:6.7849998 4:7.6329999 5:2.8269999 6:6.2189999 7:2.2620001 8:4.5229998 9:6.5019999 10:7.6329999 11:2.5439999 12:3.675 13:4.5229998 14:1.979 15:4.8060002 16:6.5019999 17:6.2189999 18:4.2399998 19:0.28299999 20:2.2620001 21:-0.255 22:0.333 23:-0.153 24:0.027000001 25:0.07 26:0.25400001 27:0.096000001 28:0.50099999 29:0.22400001 30:0.20900001 31:-0.207 32:0.107 33:0.090000004 34:0.28799999 35:0.192 36:0.588 37:0.259 38:0.287 39:0.36899999 40:0.037999999 #
25 1:9.0459995 2:0 3:4.789 4:6.119 5:4.789 6:10.908 7:1.862 8:6.119 9:2.927 10:6.9180002 11:3.7249999 12:3.4590001 13:8.2480001 14:4.789 15:5.5869999 16:3.4590001 17:6.3850002 18:6.3850002 19:1.862 20:2.661 21:-0.255 22:-0.26699999 23:-0.454 24:-0.368 25:0.285 26:-0.029999999 27:-0.12800001 28:-0.13500001 29:-0.171 30:-0.083999999 31:0.259 32:0.23800001 33:-0.023 34:0.15099999 35:0.35600001 36:-0.167 37:0.389 38:0.081 39:0.142 40:0.145 #
5.1497826134243540607826616906095 1:21.947001 2:0 3:3.99 4:1.995 5:3.99 6:11.971 7:7.9809999 8:3.99 9:1.995 10:11.971 11:1.995 12:0 13:11.971 14:0 15:9.9759998 16:5.9860001 17:0 18:0 19:0 20:0 21:-0.222 22:-0.161 23:-0.222 24:0.223 25:0.183 26:-0.368 27:-0.72899997 28:-0.46799999 29:-0.124 30:0.15000001 31:-1.295 32:-0.63 33:1.864 34:0.95200002 35:0.66299999 36:0.315 37:-1.062 38:-0.366 39:0.78299999 40:0.755 #
-25 1:13.866 2:0.47299999 3:6.618 4:6.7750001 5:2.5209999 6:9.4540005 7:1.576 8:5.3569999 9:3.9389999 10:8.9809999 11:3.151 12:2.2060001 13:5.5149999 14:5.6719999 15:6.7750001 16:4.5689998 17:4.7270002 18:6.303 19:0.63 20:1.733 21:-0.69800001 22:-0.27500001 23:-0.46900001 24:-0.21699999 25:0.184 26:0.44600001 27:0.0049999999 28:-0.0049999999 29:-0.227 30:0.175 31:-0.31200001 32:-0.02 33:0.064000003 34:0.071000002 35:0.142 36:0.046999998 37:0.48300001 38:0.38800001 39:-0.49399999 40:-0.132 #
25 1:2.279 2:3.418 3:7.217 4:5.697 5:2.279 6:6.4569998 7:2.6589999 8:1.5190001 9:4.178 10:11.015 11:1.1390001 12:5.3169999 13:4.178 14:6.4569998 15:6.4569998 16:7.5960002 17:6.4569998 18:6.0770001 19:3.7980001 20:2.6589999 21:0.23999999 22:0.205 23:-0.16599999 24:0.011 25:0.5 26:0.36399999 27:0.123 28:0.071000002 29:-0.38499999 30:-0.368 31:0.26699999 32:0.028999999 33:0.94700003 34:0.51700002 35:0.107 36:0.109 37:0.055 38:0.37599999 39:0.030999999 40:0.115 #
-4.6070436598512856107845436781645 1:8.3870001 2:2.72 3:4.987 4:8.1599998 5:3.1730001 6:4.0799999 7:4.7600002 8:3.6270001 9:2.493 10:10.653 11:4.3070002 12:1.813 13:4.7600002 14:6.573 15:6.1199999 16:6.3470001 17:5.4400001 18:6.573 19:2.04 20:3.6270001 21:-0.2 22:0.075000003 23:-0.27599999 24:-0.26899999 25:-0.039000001 26:-0.059 27:0.15800001 28:0.45699999 29:-0.227 30:-0.083999999 31:-0.36899999 32:-0.116 33:-0.061999999 34:0.185 35:0.12 36:-0.052000001 37:-0.132 38:-0.046999998 39:0.23100001 40:0.064999998 #
-18.126613174430946884285731357522 1:6.744 2:1.927 3:3.8540001 4:7.7069998 5:3.8540001 6:3.8540001 7:8.6709995 8:1.927 9:3.8540001 10:9.6339998 11:0.963 12:7.7069998 13:4.8169999 14:3.8540001 15:4.8169999 16:7.7069998 17:8.6709995 18:10.598 19:0.963 20:0 21:-0.634 22:-0.685 23:-0.55400002 24:-0.414 25:-0.093000002 26:0.354 27:0.19 28:0.20900001 29:0.23100001 30:0.041999999 31:0.449 32:0.308 33:-1.248 34:-0.59600002 35:-0.243 36:-0.221 37:0.76899999 38:0.74900001 39:-0.229 40:-0.50700003 #
-25 1:10.14 2:3.826 3:5.3569999 4:6.5050001 5:2.8699999 6:5.5479999 7:1.913 8:2.8699999 9:3.826 10:4.783 11:2.105 12:4.0180001 13:9.9490004 14:3.0610001 15:7.079 16:9.7580004 17:6.5050001 18:3.253 19:0.76499999 20:0.191 21:0.213 22:0.495 23:-0.052999999 24:0.31900001 25:0.029999999 26:0.089000002 27:0.163 28:0.40099999 29:0.31 30:0.40000001 31:0.56599998 32:0.597 33:0.273 34:0.60600001 35:-0.126 36:0.347 37:0.542 38:0.64999998 39:-0.21600001 40:0.07 #
-25 1:7.6300001 2:0.54500002 3:3.27 4:2.1800001 5:3.8150001 6:5.9949999 7:3.27 8:2.1800001 9:3.27 10:3.8150001 11:2.7249999 12:5.9949999 13:7.085 14:6.54 15:5.9949999 16:9.8100004 17:9.8100004 18:9.2650003 19:2.7249999 20:5.9949999 21:-0.56699997 22:-0.31 23:-0.509 24:-0.35499999 25:-0.41600001 26:-0.072999999 27:0.26800001 28:0.28099999 29:0.075000003 30:-0.169 31:-0.52999997 32:-0.41800001 33:-0.366 34:-0.147 35:0.003 36:-0.0070000002 37:0.60299999 38:0.414 39:0.199 40:0.111 #
25 1:9.1639996 2:5.4990001 3:0 4:3.6659999 5:3.6659999 6:9.1639996 7:0 8:10.997 9:5.4990001 10:5.4990001 11:7.3319998 12:3.6659999 13:1.8329999 14:3.6659999 15:7.3319998 16:9.1639996 17:0 18:7.3319998 19:0 20:1.8329999 21:1.2460001 22:0.208 23:-0.465 24:-0.48899999 25:0.23 26:0.15899999 27:1.132 28:0.58499998 29:1.682 30:0.23899999 31:0.41800001 32:-0.064999998 33:-0.52700001 34:0.72799999 35:-0.266 36:-0.183 37:0.27000001 38:-0.214 39:-0.086000003 40:0.086999997 #
25 1:7.9050002 2:3.6889999 3:6.0609999 4:4.743 5:5.7969999 6:8.6960001 7:0.79100001 8:9.4860001 9:7.9050002 10:7.1149998 11:1.581 12:5.27 13:4.743 14:2.372 15:3.1619999 16:4.743 17:5.7969999 18:6.5879998 19:0.52700001 20:3.1619999 21:-0.498 22:-0.71899998 23:-0.041999999 24:-0.153 25:-0.25400001 26:-0.198 27:0.296 28:-0.022 29:-0.11 30:-0.30599999 31:0.64899999 32:0.50199997 33:0.138 34:-0.105 35:0.361 36:0.27700001 37:-0.23899999 38:-0.347 39:0.278 40:0.359 #
-25 1:7.211 2:1.03 3:9.2720003 4:5.151 5:4.1209998 6:11.332 7:1.03 8:6.1810002 9:9.2720003 10:4.1209998 11:5.151 12:2.0599999 13:2.0599999 14:6.1810002 15:3.0910001 16:6.1810002 17:6.1810002 18:6.1810002 19:1.03 20:2.0599999 21:-0.71200001 22:0.044 23:-0.95300001 24:-0.491 25:0.148 26:0.44999999 27:0.51200002 28:0.70300001 29:-0.64399999 30:-0.061000001 31:0.185 32:0.463 33:0.19599999 34:0.55199999 35:0.35299999 36:0.35800001 37:-0.391 38:-0.061999999 39:0.15800001 40:0.294 #
-25 1:7.9749999 2:1.04 3:9.3610001 4:3.641 5:4.1609998 6:8.6680002 7:3.1199999 8:4.6810002 9:6.0679998 10:8.8409996 11:1.734 12:6.0679998 13:3.8139999 14:2.7739999 15:3.1199999 16:5.3740001 17:4.1609998 18:8.1479998 19:2.5999999 20:4.8540001 21:-0.085000001 22:-0.36500001 23:-0.0049999999 24:-0.23800001 25:-0.075999998 26:0.066 27:-0.090999998 28:0.035999998 29:0.075999998 30:-0.177 31:-0.252 32:-0.085000001 33:0.13699999 34:0.426 35:-0.185 36:-0.40400001 37:-0.097000003 38:-0.191 39:0.43000001 40:0.87800002 #
-25 1:6.0679998 2:3.467 3:0 4:4.3340001 5:7.8010001 6:8.6680002 7:6.0679998 8:5.2010002 9:2.5999999 10:8.6680002 11:2.5999999 12:5.2010002 13:3.467 14:5.2010002 15:11.268 16:7.8010001 17:7.8010001 18:5.2010002 19:1.734 20:0.86699998 21:-0.92400002 22:-0.89200002 23:0.112 24:-0.21600001 25:-0.90600002 26:-0.56199998 27:0.082000002 28:-0.072999999 29:-0.62900001 30:0.41299999 31:-0.79500002 32:-0.528 33:0.75 34:0.414 35:-0.13699999 36:-0.063000001 37:0.294 38:0.0049999999 39:-0.086000003 40:-0.27599999 #
25 1:4.48 2:6.7199998 3:5.5999999 4:2.24 5:6.7199998 6:7.8400002 7:4.48 8:4.48 9:5.5999999 10:5.5999999 11:3.3599999 12:0 13:6.7199998 14:4.48 15:6.7199998 16:6.7199998 17:7.8400002 18:6.7199998 19:0 20:5.5999999 21:-0.315 22:-0.667 23:0.26100001 24:0.059 25:-0.36399999 26:-0.27399999 27:-0.417 28:-0.461 29:-0.093999997 30:0.048 31:-0.226 32:-0.26800001 33:-0.65700001 34:-0.354 35:0.69199997 36:1.0930001 37:-0.093999997 38:-0.185 39:0.198 40:0.102 #
25 1:14.26 2:0.197 3:8.2609997 4:9.7360001 5:3.54 6:6.8839998 7:2.164 8:2.852 9:1.082 10:4.4260001 11:1.475 12:3.6389999 13:8.7530003 14:6.0970001 15:4.3270001 16:6.5890002 17:4.4260001 18:5.0159998 19:0.68800002 20:2.95 21:-0.0060000001 22:0.215 23:-0.017000001 24:0.17200001 25:-0.14399999 26:-0.048 27:0.105 28:0.119 29:0.0080000004 30:0.193 31:-0.054000001 32:0.52200001 33:0.19599999 34:0.428 35:0.146 36:0.37099999 37:0.0089999996 38:0.43399999 39:-0.155 40:0.142 #
-25 1:14.744 2:0.921 3:5.5289998 4:11.058 5:0 6:7.3720002 7:2.7639999 8:0 9:2.7639999 10:13.822 11:1.8430001 12:3.6860001 13:2.7639999 14:1.8430001 15:6.4499998 16:6.4499998 17:2.7639999 18:9.2150002 19:0.921 20:2.7639999 21:-0.64999998 22:-0.113 23:-0.38 24:0.32800001 25:-0.345 26:0.38800001 27:0.77399999 28:1.15 29:-0.88800001 30:-0.155 31:-0.39399999 32:0.118 33:0.40099999 34:0.31099999 35:-0.055 36:-0.067000002 37:0.153 38:0.096000001 39:0.79000002 40:0.86000001 #
-25 1:5.4949999 2:1.099 3:5.4949999 4:4.6160002 5:4.177 6:5.7150002 7:1.539 8:4.6160002 9:7.2540002 10:8.7930002 11:0.65899998 12:6.375 13:5.7150002 14:11.43 15:1.978 16:7.0339999 17:6.8140001 18:6.5939999 19:2.418 20:3.0769999 21:-0.26100001 22:-0.17900001 23:0.292 24:0.16500001 25:0.249 26:0.145 27:-0.741 28:-0.39500001 29:0.294 30:-0.016000001 31:-0.477 32:-0.39899999 33:0.125 34:0.244 35:-0.154 36:-0.1 37:-0.152 38:-0.0060000001 39:0.15800001 40:0.31099999 #
-25 1:5.9169998 2:2.151 3:2.151 4:4.8410001 5:4.8410001 6:6.9920001 7:0 8:6.9920001 9:2.6889999 10:5.3790002 11:3.227 12:5.9169998 13:5.3790002 14:4.303 15:6.454 16:10.757 17:8.6059999 18:4.303 19:0.53799999 20:2.151 21:0.49000001 22:0.273 23:0.88499999 24:0.82700002 25:0.237 26:-0.0099999998 27:0.23100001 28:0.27700001 29:0.80299997 30:-0.037999999 31:0.33399999 32:0.45300001 33:0.289 34:-0.032000002 35:0.31900001 36:0.0070000002 37:0.83399999 38:0.41100001 39:0.039999999 40:-0.22 #
25 1:1.232 2:0 3:6.1599998 4:8.6230001 5:1.232 6:12.319 7:1.232 8:6.1599998 9:11.087 10:6.1599998 11:3.6960001 12:2.464 13:6.1599998 14:0 15:0 16:11.087 17:6.1599998 18:12.319 19:0 20:1.232 21:-0.36300001 22:0.61799997 23:-0.44100001 24:-0.37400001 25:-0.32499999 26:-0.26199999 27:-0.089000002 28:-0.48199999 29:0.74400002 30:0.70300001 31:-0.86199999 32:-0.33199999 33:0.086999997 34:1.016 35:0.59399998 36:1.5880001 37:-0.0080000004 38:0.086000003 39:0.34200001 40:0.43799999 #
25 1:8.8920002 2:0.889 3:2.6670001 4:5.335 5:2.6670001 6:8.0019999 7:2.6670001 8:7.1129999 9:5.335 10:7.1129999 11:7.1129999 12:8.8920002 13:4.4460001 14:5.335 15:0 16:5.335 17:8.8920002 18:5.335 19:1.778 20:1.778 21:0.022 22:-0.028999999 23:-0.54900002 24:-0.403 25:0.249 26:0.044 27:-0.12899999 28:-0.38100001 29:-0.317 30:-0.32600001 31:0.96600002 32:0.38 33:0.061000001 34:0.0040000002 35:-0.176 36:0.017000001 37:0.27900001 38:0.454 39:0.071000002 40:0.176 #
-25 1:2.207 2:0.736 3:8.0909996 4:11.768 5:0.736 6:5.8839998 7:3.678 8:2.9419999 9:8.8260002 10:5.1490002 11:2.207 12:3.678 13:2.9419999 14:2.207 15:5.8839998 16:8.0909996 17:3.678 18:5.8839998 19:2.207 20:2.207 21:1.053 22:1.8049999 23:-1.382 24:-0.23999999 25:0.162 26:1.033 27:0.40799999 28:0.699 29:-0.078000002 30:0.79900002 31:0.059 32:1.322 33:0.83999997 34:0.84200001 35:0.96399999 36:1.105 37:0.16 38:0.44400001 39:0.252 40:0.755 #
-25 1:7.1560001 2:0 3:5.0089998 4:5.7249999 5:5.7249999 6:9.302 7:0.71600002 8:7.8709998 9:5.0089998 10:6.4400001 11:5.7249999 12:7.1560001 13:4.2930002 14:2.1470001 15:1.431 16:8.5869999 17:7.8709998 18:5.7249999 19:1.431 20:1.431 21:0.15700001 22:-0.245 23:0.727 24:0.78200001 25:-0.17 26:-0.63 27:0.139 28:0.25 29:-0.377 30:-0.44100001 31:0.35299999 32:0.12800001 33:0.063000001 34:-0.122 35:0.352 36:0.112 37:0.016000001 38:-0.168 39:0.071000002 40:0.25400001 #
25 1:4.5819998 2:0.97299999 3:6.9109998 4:11.006 5:2.6359999 6:4.3000002 7:2.201 8:6.757 9:5.5539999 10:5.4780002 11:0.84500003 12:1.51 13:5.7589998 14:3.635 15:2.0220001 16:12.184 17:12.491 18:6.9369998 19:0.41 20:2.4059999 21:-0.138 22:0.15700001 23:-0.022 24:0.354 25:-0.28299999 26:-0.054000001 27:-0.079000004 28:0.287 29:-0.115 30:0.15800001 31:-0.014 32:0.36300001 33:-0.0080000004 34:0.28200001 35:0.0049999999 36:0.204 37:-0.030999999 38:0.206 39:-0.083999999 40:0.215 #
8.4587578686012232509483510511927 1:18.583 2:0 3:5.7389998 4:5.1919999 5:1.64 6:6.559 7:1.0930001 8:2.733 9:4.3730001 10:9.2919998 11:2.1860001 12:1.3660001 13:3.279 14:6.8319998 15:7.3790002 16:3.553 17:2.46 18:12.571 19:0.81999999 20:1.913 21:-0.85500002 22:-0.36000001 23:0.38800001 24:0.42500001 25:-0.31400001 26:-0.25 27:0.17299999 28:0.017999999 29:0.114 30:0.14300001 31:-0.219 32:0.105 33:0.78299999 34:0.66399997 35:-0.116 36:0.19400001 37:-0.108 38:0.068999998 39:0.84299999 40:0.741 #
-25 1:13.077 2:0.68800002 3:5.1620002 4:6.5380001 5:4.1300001 6:9.2910004 7:1.0319999 8:6.1939998 9:2.4089999 10:7.5710001 11:2.753 12:2.753 13:5.8499999 14:5.1620002 15:6.8829999 16:5.506 17:2.0650001 18:8.9469995 19:2.4089999 20:3.0969999 21:0.76200002 22:0.145 23:-0.071999997 24:-0.359 25:-0.125 26:-0.252 27:-0.25400001 28:-0.131 29:0.252 30:0.32300001 31:-0.146 32:0.086000003 33:-0.40099999 34:-0.15000001 35:-0.484 36:-0.35600001 37:0.032000002 38:0.26800001 39:-0.122 40:-0.53299999 #
25 1:6.0510001 2:3.503 3:5.414 4:6.369 5:4.4580002 6:7.6430001 7:4.777 8:2.5480001 9:4.4580002 10:9.2349997 11:0.95499998 12:5.0949998 13:4.1399999 14:7.006 15:4.1399999 16:7.6430001 17:4.1399999 18:6.369 19:3.503 20:1.592 21:0.025 22:-0.048999999 23:0.24699999 24:0.18000001 25:0.156 26:0.20900001 27:0.055 28:-0.022 29:-0.11 30:-0.175 31:0.113 32:0.145 33:0.449 34:0.33899999 35:-0.16 36:-0.041999999 37:-0.278 38:0.30500001 39:-0.18099999 40:-0.24600001 #
23.552977997398645726434551761486 1:18.514999 2:0 3:6.4959998 4:5.5219998 5:1.949 6:8.1210003 7:0.64999998 8:7.1459999 9:5.5219998 10:9.4200001 11:1.299 12:2.9230001 13:3.898 14:3.573 15:2.9230001 16:6.1719999 17:5.197 18:9.0950003 19:0.32499999 20:1.624 21:0.12800001 22:0.017999999 23:-0.46000001 24:-0.34999999 25:0.27900001 26:0.079000004 27:-0.205 28:-0.28999999 29:-0.47400001 30:-0.36700001 31:0.207 32:0.015 33:0.26499999 34:-0.016000001 35:-0.116 36:0.109 37:0.56699997 38:0.161 39:-0.063000001 40:0.14300001 #
-25 1:5.5149999 2:3.447 3:8.9630003 4:4.8260002 5:2.0680001 6:8.9630003 7:4.1370001 8:3.447 9:8.2729998 10:6.2049999 11:0.68900001 12:5.5149999 13:4.1370001 14:3.447 15:3.447 16:6.8940001 17:3.447 18:5.5149999 19:1.3789999 20:2.7579999 21:0.53500003 22:0.73799998 23:-0.25600001 24:0.018999999 25:0.428 26:0.69300002 27:0.52700001 28:0.61000001 29:-0.037999999 30:-0.28600001 31:-0.014 32:0.213 33:0.68300003 34:0.764 35:0.039000001 36:0.122 37:0.72899997 38:0.51800001 39:0.15099999 40:0.75 #
25 1:4.1129999 2:4.1129999 3:7.4770002 4:6.3559999 5:2.6170001 6:5.6079998 7:3.7390001 8:4.8600001 9:5.2340002 10:10.094 11:1.122 12:4.8600001 13:2.9909999 14:2.6170001 15:5.6079998 16:10.094 17:4.8600001 18:3.7390001 19:2.6170001 20:2.6170001 21:-0.114 22:0.147 23:-0.111 24:-0.182 25:0.73799998 26:0.80699998 27:0.208 28:0.30399999 29:0.248 30:-0.149 31:-0.248 32:-0.086999997 33:0.68699998 34:0.93199998 35:0.57800001 36:0.27200001 37:0.146 38:-0.15099999 39:0.34200001 40:0.29899999 #
25 1:15.005 2:1.6670001 3:1.6670001 4:0.83399999 5:3.3340001 6:6.6690001 7:5.0019999 8:5.835 9:2.5009999 10:0.83399999 11:5.0019999 12:2.5009999 13:3.3340001 14:0 15:11.67 16:9.1700001 17:7.5019999 18:10.837 19:0 20:1.6670001 21:-0.56099999 22:-0.64499998 23:0.33899999 24:0.124 25:0.91600001 26:0.285 27:-0.012 28:-0.45300001 29:1.278 30:0.89399999 31:-0.221 32:-0.368 33:0.58600003 34:0.317 35:0.94300002 36:0.55000001 37:0.53399998 38:0.31 39:0.149 40:0.0049999999 #
25 1:17.552 2:0 3:5.941 4:4.3200002 5:1.89 6:5.401 7:0.81 8:3.51 9:3.78 10:8.1009998 11:1.62 12:1.62 13:4.0500002 14:7.5609999 15:7.2909999 16:4.8610001 17:4.8610001 18:10.801 19:0.81 20:1.62 21:-0.46700001 22:0.029999999 23:0.48100001 24:0.382 25:-0.121 26:0.13500001 27:0.36399999 28:0.21799999 29:0.396 30:0.21799999 31:0.142 32:0.29499999 33:0.43099999 34:0.31900001 35:0.266 36:0.30399999 37:-0.398 38:-0.1 39:0.38499999 40:0.32100001 #
24.324614326101301031712864642031 1:5.1069999 2:2.9189999 3:5.8369999 4:7.296 5:2.1889999 6:2.9189999 7:2.1889999 8:1.459 9:12.404 10:3.648 11:0.73000002 12:4.3779998 13:7.296 14:3.648 15:0.73000002 16:5.8369999 17:9.4849997 18:3.648 19:0.73000002 20:2.1889999 21:0.31200001 22:1.043 23:0.033 24:0.73299998 25:0.43399999 26:0.80599999 27:0.67500001 28:1.161 29:1.053 30:1.4630001 31:0.65200001 32:1.089 33:-0.0070000002 34:0.59200001 35:0.257 36:0.71899998 37:0.69599998 38:1.229 39:0.949 40:1.472 #
-25 1:8.1859999 2:4.678 3:5.8470001 4:7.6009998 5:5.8470001 6:6.4320002 7:2.339 8:3.5079999 9:5.2620001 10:11.694 11:0.58499998 12:2.924 13:3.5079999 14:7.0159998 15:4.678 16:5.2620001 17:3.5079999 18:6.4320002 19:1.7539999 20:5.2620001 21:-0.43099999 22:-0.31999999 23:-0.58899999 24:-0.227 25:-0.28 26:0.115 27:0.207 28:-0.125 29:0.003 30:-0.223 31:-0.83499998 32:-0.76700002 33:1.109 34:0.61900002 35:-0.107 36:0.012 37:0.108 38:-0.32100001 39:-0.329 40:0.057999998 #
25 1:7.8400002 2:2.323 3:5.2270002 4:5.5170002 5:5.5170002 6:8.4209995 7:1.452 8:8.1300001 9:7.2589998 10:6.098 11:3.194 12:6.9689999 13:4.0650001 14:5.2270002 15:2.904 16:6.098 17:3.7750001 18:7.8400002 19:1.161 20:2.904 21:-0.546 22:-0.35600001 23:-0.27500001 24:-0.29899999 25:-0.289 26:-0.204 27:0.021 28:-0.057 29:-0.068000004 30:0.133 31:-0.071000002 32:0.18799999 33:0.243 34:0.093000002 35:0.068000004 36:0.20999999 37:0.0040000002 38:0.015 39:-0.31 40:-0.421 #
-1.1774562942028901080249170263414 1:12.214 2:0.25999999 3:7.276 4:6.237 5:3.638 6:7.276 7:2.859 8:3.118 9:1.299 10:8.5760002 11:2.079 12:2.079 13:7.5359998 14:1.559 15:9.0959997 16:5.4569998 17:4.678 18:7.5359998 19:3.378 20:3.898 21:-0.184 22:-0.17 23:-0.061999999 24:-0.40400001 25:0.56099999 26:0.41999999 27:-0.18700001 28:-0.176 29:-0.37900001 30:-0.41600001 31:-0.345 32:-0.347 33:0.26100001 34:0.83200002 35:-0.115 36:0.214 37:0.31299999 38:0.18000001 39:-0.161 40:0.114 #
-23.931266043311975266760782687925 1:10.798 2:0.514 3:4.1139998 4:5.1420002 5:3.599 6:7.7129998 7:3.085 8:3.085 9:3.599 10:7.7129998 11:4.1139998 12:3.599 13:4.6279998 14:4.6279998 15:6.6849999 16:7.7129998 17:3.599 18:6.6849999 19:1.028 20:5.1420002 21:0.405 22:0.23800001 23:-0.30399999 24:0.184 25:0.77700001 26:0.579 27:-0.31600001 28:-0.033 29:-0.61699998 30:-0.31299999 31:0.028999999 32:0.34200001 33:0.071999997 34:0.414 35:-0.26100001 36:0.014 37:0.28200001 38:0.329 39:0.417 40:0.57700002 #
-25 1:9.7659998 2:6.5110002 3:4.8829999 4:6.5110002 5:1.628 6:8.1389999 7:1.628 8:8.1389999 9:4.8829999 10:8.1389999 11:3.2550001 12:3.2550001 13:4.8829999 14:4.8829999 15:8.1389999 16:6.5110002 17:8.1389999 18:0 19:1.628 20:1.628 21:-0.50999999 22:-0.027000001 23:-0.55800003 24:-0.32699999 25:0.62300003 26:0.99699998 27:-0.0080000004 28:-0.15899999 29:-0.61500001 30:-1.154 31:-1.003 32:-0.052999999 33:-0.97600001 34:-0.63099998 35:-0.27900001 36:-0.85500002 37:0.29499999 38:0.82999998 39:0.84799999 40:1.017 #
-25 1:14.903 2:1.683 3:5.0479999 4:3.365 5:2.6440001 6:7.9320002 7:2.1630001 8:7.211 9:5.2880001 10:8.8940001 11:2.404 12:3.6059999 13:5.2880001 14:4.3270001 15:5.0479999 16:6.4899998 17:5.2880001 18:5.7690001 19:1.442 20:3.125 21:0.131 22:-0.090000004 23:-0.086999997 24:-0.085000001 25:0.34799999 26:0.27000001 27:-0.32100001 28:-0.36199999 29:0.31900001 30:0.19 31:-0.205 32:-0.301 33:-0.382 34:-0.308 35:-0.075000003 36:-0.19599999 37:-0.139 38:-0.078000002 39:-0.26499999 40:-0.28 #
25 1:7.6409998 2:0 3:5.4120002 4:7.6409998 5:4.4569998 6:14.008 7:2.2290001 8:3.184 9:6.3670001 10:9.8699999 11:3.8199999 12:1.91 13:3.5020001 14:4.4569998 15:5.0939999 16:5.7309999 17:4.776 18:7.6409998 19:0.63700002 20:1.91 21:-0.12 22:0.21699999 23:0.0089999996 24:-0.12 25:-0.107 26:0.141 27:-0.315 28:-0.030999999 29:-0.098999999 30:0.23100001 31:-0.079000004 32:-0.090999998 33:-0.133 34:0.204 35:-0.47600001 36:-0.022 37:0.111 38:0.30000001 39:-0.037999999 40:0.12899999 #
25 1:7.3410001 2:0 3:4.1950002 4:5.7680001 5:6.2930002 6:11.536 7:1.049 8:5.7680001 9:5.244 10:9.9630003 11:1.573 12:5.244 13:2.622 14:4.7189999 15:1.573 16:5.244 17:9.9630003 18:5.7680001 19:2.622 20:1.049 21:0.38600001 22:0.234 23:0.139 24:-0.133 25:0.40000001 26:0.412 27:0.18700001 28:-0.248 29:0.34200001 30:-0.23800001 31:0.523 32:0.17399999 33:-0.242 34:-0.58999997 35:0.301 36:0.109 37:0.29100001 38:0.017999999 39:0.24699999 40:0.153 #
0.24621815807656388663815505424282 1:6.855 2:4.1129999 3:6.855 4:6.855 5:5.4840002 6:7.54 7:2.7420001 8:3.427 9:6.1690001 10:6.855 11:2.056 12:2.056 13:4.1129999 14:4.1129999 15:4.7979999 16:4.1129999 17:5.4840002 18:8.2250004 19:4.7979999 20:4.7979999 21:0.017999999 22:0.403 23:-1.235 24:-1.177 25:0.44299999 26:0.017999999 27:0.097999997 28:-0.62199998 29:-1.084 30:-1.002 31:0.094999999 32:0.50800002 33:0.093000002 34:0.02 35:-0.115 36:-0.42199999 37:0.53100002 38:0.192 39:0.889 40:0.90200001 #
25 1:10.023 2:5.0110002 3:2.506 4:3.007 5:4.0089998 6:7.0159998 7:2.506 8:4.0089998 9:1.002 10:8.0179996 11:1.503 12:1.503 13:11.025 14:3.007 15:8.5190001 16:9.5209999 17:7.5170002 18:4.5100002 19:1.503 20:4.5100002 21:0.15000001 22:0.13 23:-0.064000003 24:-0.17200001 25:0.02 26:0.054000001 27:-0.26100001 28:-0.191 29:-0.50700003 30:-0.204 31:0.192 32:0.14399999 33:0.037999999 34:-0.114 35:0.56 36:0.34099999 37:0.58499998 38:0.092 39:-0.62599999 40:-0.39300001 #
-25 1:11.846 2:1.87 3:4.3639998 4:3.7409999 5:1.247 6:12.469 7:0.62300003 8:4.3639998 9:6.2350001 10:8.1049995 11:3.7409999 12:4.9879999 13:4.3639998 14:3.1170001 15:4.9879999 16:6.2350001 17:4.9879999 18:4.3639998 19:2.494 20:2.494 21:0.30899999 22:-0.068000004 23:0.472 24:0.51200002 25:0.80500001 26:0.64999998 27:0.78399998 28:0.34200001 29:-0.1 30:-0.208 31:0.30700001 32:0.2 33:-0.234 34:-0.46200001 35:0.33700001 36:0.50099999 37:-0.59899998 38:0.041999999 39:-0.011 40:-0.21600001 #
-10.413801149842711879500711802393 1:9.7770004 2:1.778 3:6.6659999 4:7.1110001 5:2.6659999 6:9.3330002 7:1.778 8:3.5550001 9:4 10:13.332 11:3.1110001 12:4 13:4.8889999 14:0.889 15:7.1110001 16:5.777 17:5.777 18:6.2220001 19:1.3329999 20:2.6659999 21:-0.028999999 22:-0.117 23:-0.70200002 24:-0.61699998 25:-0.347 26:0.048999999 27:-0.421 28:-0.176 29:-0.045000002 30:-0.19599999 31:0.22499999 32:-0.064999998 33:0.498 34:0.31099999 35:0.072999999 36:0.30599999 37:-0.139 38:0.032000002 39:-0.40599999 40:-0.0049999999 #
-25 1:8.1289997 2:3.0940001 3:6.6129999 4:2.7909999 5:4.0650001 6:9.8280001 7:1.274 8:4.671 9:3.3970001 10:5.5209999 11:1.699 12:3.0940001 13:9.5249996 14:3.155 15:2.973 16:6.855 17:8.9790001 18:6.9159999 19:2.3659999 20:3.6400001 21:0.266 22:0.055 23:-0.101 24:-0.25999999 25:0.15099999 26:0.071000002 27:0.141 28:0.089000002 29:0.12800001 30:0.059 31:0.066 32:-0.052999999 33:0.124 34:-0.171 35:0.197 36:0.097999997 37:0.142 38:0.139 39:0.27900001 40:-0.003 #
-8.1585093390820766501292382599786 1:3.0739999 2:0.27000001 3:5.8239999 4:8.4130001 5:2.9660001 6:4.6919999 7:0.53899997 8:5.8779998 9:13.967 10:6.4169998 11:1.78 12:9.1680002 13:2.319 14:2.1570001 15:1.78 16:6.7410002 17:5.1230001 18:5.77 19:0.53899997 20:2.9119999 21:-0.022 22:0.45300001 23:0.30000001 24:0.685 25:0.44800001 26:0.85699999 27:0.264 28:0.852 29:0.33899999 30:0.78899997 31:0.153 32:0.611 33:0.33500001 34:0.75700003 35:0.391 36:0.91500002 37:0.214 38:0.58999997 39:0.146 40:0.59600002 #
25 1:3.1830001 2:4.244 3:7.9569998 4:6.8959999 5:2.652 6:5.3049998 7:3.1830001 8:5.3049998 9:6.8959999 10:10.079 11:1.591 12:5.835 13:5.3049998 14:3.1830001 15:3.7130001 16:8.4879999 17:6.3660002 18:5.3049998 19:3.7130001 20:3.7130001 21:-0.30399999 22:0.0080000004 23:-0.121 24:-0.171 25:-0.66500002 26:-0.45199999 27:-0.43200001 28:0.090999998 29:0.061000001 30:-0.35100001 31:-0.73799998 32:-0.63 33:0.161 34:0.53899997 35:-0.80400002 36:-0.67799997 37:0.56900001 38:0.69800001 39:0.21699999 40:0.088 #
25 1:10.922 2:0.542 3:6.6279998 4:5.6279998 5:3.168 6:7.8369999 7:0.83399999 8:6.8779998 9:3.418 10:7.2119999 11:1.001 12:7.0040002 13:2.835 14:6.2529998 15:3.835 16:6.2529998 17:9.0880003 18:6.7529998 19:1.4170001 20:2.96 21:-0.484 22:-0.28 23:-0.028000001 24:0.015 25:-0.104 26:-0.061000001 27:0.035999998 28:0.068000004 29:-0.13699999 30:-0.041999999 31:-0.075000003 32:0.0049999999 33:0.152 34:0.235 35:-0.035 36:-0.0089999996 37:0.098999999 38:0.13 39:0.041999999 40:0.0070000002 #
-25 1:12.346 2:0.54900002 3:3.5669999 4:3.8410001 5:2.1949999 6:9.0539999 7:0.82300001 8:5.487 9:3.8410001 10:10.7 11:2.4690001 12:3.8410001 13:3.5669999 14:6.0359998 15:4.9380002 16:6.585 17:8.2309999 18:10.974 19:0 20:0.82300001 21:-0.229 22:-0.012 23:0.193 24:-0.026000001 25:0.077 26:0.081 27:-0.11 28:-0.108 29:-0.58600003 30:-0.414 31:0.29300001 32:0.057999998 33:-0.022 34:-0.197 35:0.169 36:0.071000002 37:0.20200001 38:0.075000003 39:0.42500001 40:0.193 #
-25 1:13.23 2:0.25 3:3.744 4:6.2399998 5:3.994 6:6.7399998 7:1.498 8:0.99800003 9:5.9910002 10:9.4849997 11:6.4899998 12:3.2449999 13:4.243 14:11.982 15:2.7460001 16:7.4879999 17:3.744 18:3.4949999 19:2.9949999 20:1.747 21:0.081 22:0.030999999 23:-0.491 24:-0.84399998 25:0.354 26:0.51499999 27:0.40700001 28:0.63999999 29:-0.083999999 30:-0.38600001 31:-0.096000001 32:-0.52499998 33:0.47600001 34:0.64899999 35:-0.078000002 36:0.21799999 37:-0.449 38:-0.58399999 39:-0.149 40:-0.030999999 #
-25 1:10.874 2:0.27900001 3:5.5770001 4:4.0430002 5:3.207 6:8.3649998 7:1.812 8:2.928 9:3.7639999 10:13.942 11:1.255 12:3.207 13:6.4130001 14:8.2259998 15:6.4130001 16:7.1100001 17:3.207 18:5.0190001 19:3.7639999 20:2.5090001 21:-0.075999998 22:0.024 23:-0.028999999 24:-0.024 25:-0.514 26:-0.37099999 27:-0.27000001 28:-0.189 29:-0.21699999 30:-0.197 31:-0.23199999 32:-0.359 33:0.19499999 34:-0.077 35:-0.20900001 36:-0.086000003 37:0.119 38:0.28 39:0.061999999 40:0.25600001 #
25 1:3.9779999 2:2.8929999 3:6.5089998 4:6.5089998 5:3.2550001 6:3.9779999 7:1.085 8:4.3400002 9:6.1479998 10:7.9559999 11:1.808 12:6.1479998 13:1.447 14:3.2550001 15:5.7859998 16:9.4020004 17:6.5089998 18:6.1479998 19:3.6159999 20:2.5309999 21:0.829 22:0.89999998 23:0.53899997 24:0.43900001 25:0.79100001 26:0.45199999 27:0.105 28:0.234 29:0.23800001 30:0.097999997 31:0.23800001 32:-0.090000004 33:0.48800001 34:0.56599998 35:0.085000001 36:0.39199999 37:0.449 38:0.12899999 39:-0.127 40:-0.055 #
25 1:12.476 2:0 3:5.0500002 4:5.941 5:5.3470001 6:9.2089996 7:0 8:5.0500002 9:5.6440001 10:10.397 11:3.2679999 12:3.5650001 13:4.4559999 14:7.723 15:2.674 16:5.3470001 17:5.0500002 18:6.2379999 19:1.188 20:2.3759999 21:-0.16 22:-0.26499999 23:-0.43799999 24:-0.493 25:0.19599999 26:0.032000002 27:-0.108 28:-0.27900001 29:0.16500001 30:0.145 31:0.043000001 32:-0.18700001 33:0.043000001 34:-0.090000004 35:0.032000002 36:0.0020000001 37:0.131 38:-0.041000001 39:0.2 40:0.072999999 #
25 1:11.214 2:0.56099999 3:3.3640001 4:1.962 5:3.3640001 6:8.1300001 7:1.402 8:3.925 9:2.523 10:12.335 11:1.962 12:5.8870001 13:7.289 14:4.4860001 15:4.7659998 16:9.2510004 17:4.4860001 18:7.5689998 19:1.1210001 20:3.6440001 21:0.514 22:-0.056000002 23:-0.57099998 24:-0.38999999 25:0.197 26:0.123 27:0.064000003 28:-0.123 29:0.096000001 30:0.054000001 31:0.33000001 32:0.192 33:0.47099999 34:0.28099999 35:0.0040000002 36:0.146 37:-0.207 38:0.044 39:-0.072999999 40:-0.33899999 #
25 1:9.9099998 2:1.025 3:7.5180001 4:3.076 5:3.4170001 6:10.252 7:0.68300003 8:5.1259999 9:3.7590001 10:9.9099998 11:2.05 12:2.734 13:3.7590001 14:2.392 15:2.05 16:6.151 17:12.302 18:7.8600001 19:1.025 20:1.367 21:0.077 22:-0.18799999 23:0.421 24:0.52600002 25:0.041000001 26:-0.33399999 27:0.23199999 28:0.141 29:0.78899997 30:0.234 31:0.52600002 32:0.19 33:0.024 34:-0.063000001 35:0.35800001 36:0.153 37:0.112 38:-0.19400001 39:0.26300001 40:0.32300001 #
25 1:3.349 2:3.349 3:6.698 4:7.3670001 5:2.3440001 6:7.7020001 7:4.0190001 8:0.67000002 9:4.3530002 10:12.056 11:1.34 12:3.684 13:4.6880002 14:7.3670001 15:5.0229998 16:7.7020001 17:4.0190001 18:6.0279999 19:3.684 20:2.0090001 21:-0.012 22:0.235 23:-0.26699999 24:-0.20299999 25:0.82499999 26:0.61400002 27:0.044 28:0.018999999 29:-0.27399999 30:-0.278 31:0.43099999 32:0.14300001 33:0.537 34:0.377 35:-0.147 36:0.075999998 37:-0.19400001 38:0.221 39:0.20100001 40:0.20200001 #
-25 1:8.7860003 2:5.8569999 3:6.8330002 4:3.905 5:3.905 6:5.8569999 7:1.952 8:4.881 9:11.714 10:4.881 11:0.97600001 12:5.8569999 13:1.952 14:0.97600001 15:2.9289999 16:4.881 17:5.8569999 18:4.881 19:0 20:4.881 21:-0.42899999 22:-0.55800003 23:1.039 24:1.377 25:0.29800001 26:-0.778 27:0.912 28:1.318 29:0.76899999 30:0.616 31:0.61699998 32:0.19400001 33:0.89600003 34:0.64300001 35:0.54100001 36:0.38800001 37:0.38499999 38:0.40700001 39:-0.092 40:-0.303 #
25 1:14.295 2:0.51999998 3:5.198 4:7.0180001 5:4.1589999 6:10.396 7:3.3789999 8:5.7179999 9:3.6389999 10:6.7579999 11:3.6389999 12:3.3789999 13:4.678 14:2.859 15:5.4580002 16:3.6389999 17:5.9780002 18:6.4980001 19:0.51999998 20:2.859 21:0.075000003 22:-0.103 23:0.078000002 24:0.028999999 25:-0.26100001 26:-0.12800001 27:0.017999999 28:-0.064999998 29:-0.40000001 30:-0.42399999 31:-0.138 32:-0.133 33:-0.20900001 34:-0.014 35:0.303 36:0.47299999 37:0.017999999 38:-0.204 39:0.15800001 40:0.34 #
25 1:9.0699997 2:0 3:3.8099999 4:7.619 5:1.451 6:6.349 7:1.451 8:6.349 9:4.1719999 10:10.159 11:2.9030001 12:4.8979998 13:4.5349998 14:6.5310001 15:4.717 16:9.7959995 17:4.5349998 18:6.5310001 19:1.451 20:2.721 21:-0.07 22:-0.034000002 23:-0.103 24:-0.138 25:0.493 26:0.44499999 27:0.039000001 28:0.20100001 29:0.198 30:0.028999999 31:0.191 32:0.077 33:0.055 34:0.017999999 35:-0.089000002 36:0.050000001 37:-0.214 38:-0.125 39:-0.168 40:0.097000003 #
13.122898305468883251023726188578 1:8.6490002 2:3.46 3:7.7839999 4:5.1890001 5:1.73 6:7.7839999 7:0.86500001 8:1.73 9:11.244 10:5.1890001 11:0.86500001 12:2.595 13:7.7839999 14:0.86500001 15:2.595 16:11.244 17:5.1890001 18:0.86500001 19:0.86500001 20:2.595 21:0.30899999 22:0.63700002 23:-0.36199999 24:0.259 25:-0.037999999 26:0.90899998 27:0.71799999 28:1.126 29:0.44800001 30:1.8279999 31:0.052000001 32:0.68400002 33:-0.31200001 34:0.23100001 35:0.118 36:0.889 37:0.73699999 38:0.88499999 39:0.40099999 40:1.397 #
-25 1:13.031 2:2.3 3:3.8329999 4:4.599 5:2.3 6:1.533 7:2.3 8:7.665 9:1.533 10:9.198 11:3.066 12:3.8329999 13:7.665 14:9.198 15:5.3660002 16:11.498 17:3.066 18:6.132 19:0.76700002 20:2.3 21:-0.51700002 22:0.026000001 23:-0.68400002 24:-0.74400002 25:-0.161 26:-0.59399998 27:-0.152 28:0.38299999 29:0.44499999 30:0.38999999 31:-0.368 32:-0.377 33:0.38100001 34:0.315 35:0.63099998 36:0.421 37:0.31799999 38:0.154 39:-0.64999998 40:-0.39700001 #
-25 1:7.9569998 2:0.48199999 3:6.5100002 4:7.9569998 5:3.6170001 6:6.0279999 7:1.206 8:6.2690001 9:8.6809998 10:7.9569998 11:2.1700001 12:3.135 13:6.993 14:5.546 15:3.3759999 16:4.3400002 17:5.546 18:7.4749999 19:0.96499997 20:1.447 21:0.21699999 22:0.50599998 23:-0.69300002 24:-0.20900001 25:0.102 26:0.23899999 27:0.133 28:0.35800001 29:0.012 30:0.49700001 31:-0.035 32:0.0040000002 33:0.18799999 34:0.22400001 35:0.050999999 36:0.43099999 37:0.0020000001 38:-0.0089999996 39:-0.001 40:0.32800001 #
-25 1:4.4109998 2:2.8069999 3:6.0149999 4:3.609 5:4.8119998 6:8.8219995 7:2.4059999 8:4.0100002 9:5.6139998 10:7.619 11:2.0050001 12:4.4109998 13:6.0149999 14:3.609 15:3.609 16:9.6239996 17:8.8219995 18:6.8169999 19:0.80199999 20:3.2079999 21:-0.57700002 22:-0.48500001 23:0.54400003 24:0.36199999 25:-0.079000004 26:-0.42699999 27:-0.061000001 28:-0.068000004 29:0.23800001 30:0.44499999 31:0.148 32:-0.082999997 33:-0.248 34:-0.28299999 35:-0.044 36:0.213 37:0.435 38:0.40000001 39:0.127 40:0.39399999 #
-25 1:5.9359999 2:1.979 3:7.2550001 4:9.8929996 5:3.957 6:5.276 7:3.2980001 8:3.957 9:3.2980001 10:13.191 11:3.957 12:5.276 13:1.319 14:5.9359999 15:4.6170001 16:7.915 17:3.957 18:6.5949998 19:1.319 20:2.638 21:-0.60799998 22:-0.119 23:-0.588 24:-0.755 25:-0.192 26:-0.103 27:0.43099999 28:0.67799997 29:0.057999998 30:-0.147 31:0.384 32:0.221 33:0.001 34:0.29899999 35:-0.33000001 36:-0.223 37:-0.58899999 38:-0.58899999 39:0.109 40:0.493 #
25 1:14.391 2:0 3:4.5450001 4:7.5739999 5:3.7869999 6:3.03 7:0.75700003 8:5.302 9:8.3319998 10:9.8459997 11:3.7869999 12:3.7869999 13:5.302 14:9.0889997 15:1.515 16:6.059 17:0.75700003 18:9.0889997 19:0 20:1.515 21:-0.34799999 22:-0.182 23:-0.175 24:-0.97000003 25:0.45699999 26:1.097 27:0.75999999 28:0.81300002 29:-0.96399999 30:-1.336 31:-0.34200001 32:-0.018999999 33:1.4529999 34:1.399 35:0.152 36:0.45300001 37:0.126 38:-0.583 39:-0.60000002 40:0.34299999 #
-25 1:8.54 2:0 3:4.27 4:7.1160002 5:4.27 6:5.6929998 7:0 8:8.54 9:9.9630003 10:2.8469999 11:1.423 12:5.6929998 13:4.27 14:4.27 15:5.6929998 16:5.6929998 17:4.27 18:11.386 19:1.423 20:4.27 21:-1.404 22:-0.59200001 23:-0.403 24:0.36399999 25:1.096 26:0.51200002 27:-1.723 28:-1.5369999 29:1.743 30:1.5829999 31:-0.27399999 32:0.123 33:-0.57700002 34:-0.338 35:0.65799999 36:1.4170001 37:-0.86199999 38:-0.354 39:0.63999999 40:0.30000001 #
-9.350432395471987234714106307365 1:9.559 2:0 3:6.9520001 4:9.559 5:1.738 6:6.0830002 7:0.86900002 8:0.86900002 9:9.559 10:10.428 11:2.6070001 12:0.86900002 13:2.6070001 14:6.9520001 15:4.3449998 16:6.0830002 17:1.738 18:6.9520001 19:0 20:2.6070001 21:0.191 22:0.94300002 23:-0.208 24:0.66100001 25:0.13699999 26:1.1339999 27:0.78500003 28:1.015 29:0.338 30:0.121 31:-0.23999999 32:0.28600001 33:0.60900003 34:1.439 35:0.097000003 36:0.64099997 37:-0.171 38:0.361 39:0.35499999 40:1.128 #
25 1:7.757 2:1.337 3:6.4190001 4:8.158 5:4.6810002 6:6.8200002 7:3.21 8:7.2220001 9:3.6110001 10:9.3610001 11:2.273 12:3.076 13:4.4130001 14:3.7449999 15:7.355 16:8.2919998 17:3.7449999 18:5.4829998 19:1.337 20:2.8080001 21:-0.044 22:-0.057999998 23:-0.921 24:-0.61500001 25:0.37200001 26:0.278 27:-0.148 28:0.115 29:-0.61199999 30:-0.168 31:-0.098999999 32:-0.056000002 33:0.354 34:0.48199999 35:-0.30500001 36:-0.213 37:-0.146 38:0.20200001 39:0.16 40:0.31900001 #
25 1:7.2919998 2:3.3150001 3:4.6399999 4:8.618 5:2.652 6:5.6350002 7:3.3150001 8:2.652 9:4.6399999 10:11.932 11:3.3150001 12:3.3150001 13:1.6569999 14:6.96 15:6.96 16:7.2919998 17:1.989 18:3.6459999 19:3.6459999 20:2.3199999 21:0.23999999 22:0.37099999 23:-0.0060000001 24:-0.35100001 25:0.70700002 26:0.56599998 27:0.161 28:-0.121 29:0.21799999 30:0.022 31:0.16599999 32:0.18000001 33:1.198 34:0.77499998 35:-0.266 36:0.40000001 37:-0.106 38:-0.113 39:0.0040000002 40:0.16599999 #
25 1:9.1219997 2:2.1889999 3:5.8379998 4:3.2839999 5:2.5539999 6:6.9330001 7:1.824 8:4.0139999 9:3.6489999 10:6.9330001 11:2.1889999 12:6.9330001 13:4.3790002 14:4.0139999 15:5.8379998 16:7.6620002 17:6.9330001 18:4.0139999 19:3.2839999 20:2.1889999 21:0.229 22:0.264 23:0.215 24:0.354 25:0.87300003 26:0.61400002 27:0.45300001 28:0.32499999 29:0.022 30:-0.078000002 31:0.039999999 32:-0.028000001 33:0.95300001 34:0.54100001 35:0.146 36:0.25099999 37:0.068000004 38:-0.064000003 39:0.59399998 40:0.45500001 #
25 1:9.2969999 2:4.6490002 3:3.951 4:6.7410002 5:4.184 6:8.8330002 7:3.487 8:6.973 9:6.0430002 10:6.973 11:3.487 12:3.7190001 13:7.2059999 14:4.184 15:2.789 16:4.881 17:4.881 18:4.881 19:0.93000001 20:3.0220001 21:-0.315 22:-0.45500001 23:-0.134 24:0.015 25:-0.067000002 26:-0.075000003 27:-0.016000001 28:-0.067000002 29:0.013 30:-0.198 31:-0.38499999 32:-0.116 33:0.132 34:0.255 35:0.243 36:0.106 37:-0.133 38:-0.352 39:0.31 40:0.131 #
-25 1:6.085 2:0.676 3:6.085 4:12.169 5:5.408 6:6.7610002 7:1.352 8:7.4369998 9:3.3800001 10:8.7889996 11:4.0560002 12:8.1129999 13:3.3800001 14:5.408 15:2.0280001 16:4.0560002 17:2.704 18:3.3800001 19:4.0560002 20:6.085 21:-0.33000001 22:-0.101 23:0.132 24:-0.38100001 25:0.15899999 26:-0.39399999 27:-0.26199999 28:-0.44100001 29:0.192 30:0.96700001 31:-0.199 32:-0.27500001 33:0.51899999 34:-0.118 35:-0.081 36:-0.133 37:-0.255 38:-0.059 39:-0.153 40:-0.19499999 #
-25 1:5.5430002 2:0.792 3:6.4229999 4:6.4229999 5:4.1350002 6:4.7509999 7:2.3759999 8:7.1269999 9:5.2789998 10:8.0059996 11:1.6720001 12:6.5110002 13:6.9510002 14:3.431 15:3.6070001 16:7.8299999 17:7.566 18:8.0059996 19:0.352 20:2.4630001 21:0.141 22:0.296 23:0.34299999 24:0.414 25:-0.244 26:0.0049999999 27:-0.035999998 28:0.071000002 29:0.017999999 30:0.034000002 31:0.090000004 32:0.139 33:-0.30899999 34:-0.20900001 35:0.016000001 36:0.02 37:-0.112 38:-0.20299999 39:0.098999999 40:0.182 #
25 1:6.3540001 2:4.7069998 3:4.4720001 4:5.178 5:4.4720001 6:5.4130001 7:1.883 8:2.8239999 9:1.4119999 10:8.4729996 11:1.883 12:5.4130001 13:6.3540001 14:4.0009999 15:6.8249998 16:9.4139996 17:5.178 18:12.003 19:0.94099998 20:3.2950001 21:0.146 22:0.208 23:0.034000002 24:0.162 25:-0.0049999999 26:-0.31999999 27:-0.152 28:-0.098999999 29:-0.25799999 30:-0.011 31:-0.29699999 32:-0.25600001 33:0.071000002 34:0.043000001 35:0.028999999 36:-0.033 37:-0.13600001 38:0.045000002 39:0.059 40:0.27599999 #
-25 1:6.1269999 2:0.83600003 3:5.5700002 4:5.849 5:5.5700002 6:10.583 7:2.2279999 8:6.1269999 9:5.849 10:5.5700002 11:1.114 12:4.7350001 13:5.013 14:3.0639999 15:5.849 16:8.6339998 17:4.178 18:10.305 19:2.2279999 20:2.507 21:-0.787 22:-0.86400002 23:0.0080000004 24:-0.133 25:-0.23999999 26:-0.116 27:0.31400001 28:0.67199999 29:-0.34900001 30:-0.25600001 31:-0.36000001 32:0.0080000004 33:0.043000001 34:0.28099999 35:-0.153 36:-0.090000004 37:-0.36300001 38:0.092 39:0.107 40:0.25400001 #
25 1:10.993 2:0.449 3:4.711 4:5.6090002 5:4.487 6:9.8710003 7:2.0190001 8:4.711 9:3.5899999 10:5.8330002 11:5.1599998 12:2.243 13:8.974 14:5.3839998 15:4.9359999 16:4.487 17:7.1789999 18:5.6090002 19:2.243 20:2.0190001 21:-0.39899999 22:-0.40099999 23:-0.241 24:-0.19499999 25:0.433 26:-0.139 27:-0.30199999 28:-0.245 29:-0.234 30:0.014 31:0.104 32:-0.066 33:-0.156 34:0.071999997 35:0.48100001 36:0.17299999 37:0.38699999 38:0.11 39:0.003 40:0.093000002 #
-25 1:7.473 2:0.162 3:4.711 4:5.5240002 5:3.5739999 6:6.4980001 7:1.7869999 8:1.7869999 9:3.4119999 10:5.849 11:1.625 12:7.1479998 13:6.6609998 14:9.0979996 15:5.5240002 16:6.1739998 17:6.336 18:3.8989999 19:1.137 20:2.599 21:0.219 22:0.57099998 23:0.23999999 24:0.34599999 25:0.498 26:0.796 27:0.505 28:0.495 29:0.089000002 30:0.38 31:0.426 32:0.59100002 33:0.67500001 34:0.75300002 35:0.0089999996 36:0.49200001 37:0.18099999 38:0.47400001 39:0.384 40:0.89600003 #
-25 1:11.477 2:0 3:3.826 4:12.752 5:7.651 6:5.1009998 7:1.275 8:8.927 9:7.651 10:8.927 11:3.826 12:3.826 13:1.275 14:6.3759999 15:2.55 16:3.826 17:8.927 18:2.55 19:0 20:1.275 21:-0.57999998 22:-0.46599999 23:-0.183 24:-0.146 25:0.046999998 26:0.85100001 27:-0.162 28:-0.046999998 29:-0.092 30:-0.48899999 31:-0.55900002 32:-0.69999999 33:0.375 34:0.90399998 35:-0.85600001 36:-0.84500003 37:0.024 38:-0.041000001 39:0.161 40:0.78200001 #
-25 1:10.266 2:3.2079999 3:5.7740002 4:5.7740002 5:6.4159999 6:11.549 7:3.8499999 8:5.7740002 9:3.8499999 10:9.6239996 11:3.8499999 12:1.925 13:5.1329999 14:2.566 15:7.0580001 16:5.1329999 17:1.925 18:5.1329999 19:1.283 20:3.2079999 21:-1.125 22:-0.74900001 23:-0.067000002 24:-0.35100001 25:1.02 26:0.75599998 27:-0.68599999 28:-0.43200001 29:-0.147 30:-0.0040000002 31:0.18099999 32:0.29499999 33:-0.23199999 34:0.161 35:0.121 36:-0.73000002 37:-0.56999999 38:-0.113 39:-0.40599999 40:-0.21699999 #
25 1:12.393 2:0 3:4.303 4:4.4749999 5:2.4100001 6:6.0240002 7:0.861 8:4.4749999 9:3.7869999 10:9.2950001 11:1.721 12:6.0240002 13:4.8189998 14:7.9180002 15:6.1960001 16:6.7129998 17:6.369 18:7.9180002 19:0.861 20:1.549 21:0.056000002 22:0.24600001 23:0.154 24:0.145 25:0.222 26:0.228 27:0.245 28:0.227 29:-0.050000001 30:0.081 31:0.050000001 32:0.14300001 33:-0.19499999 34:-0.12 35:0.127 36:0.088 37:-0.149 38:-0.186 39:0.31 40:0.26800001 #
25 1:4.5079999 2:2.4590001 3:7.0489998 4:6.3109999 5:1.803 6:7.869 7:2.7869999 8:2.2950001 9:6.1469998 10:6.0650001 11:1.066 12:4.3439999 13:7.2129998 14:2.951 15:6.5570002 16:7.4590001 17:5.164 18:5 19:1.475 20:2.049 21:0.57300001 22:0.75700003 23:0.17 24:0.64999998 25:0.359 26:0.94 27:0.23100001 28:0.65600002 29:0.389 30:0.71600002 31:0.198 32:0.44999999 33:0.46900001 34:0.63300002 35:0.27599999 36:0.50400001 37:0.156 38:0.454 39:0.234 40:0.61299998 #
-25 1:10.732 2:0.18799999 3:7.3429999 4:3.954 5:1.883 6:7.908 7:0.75300002 8:3.201 9:5.6479998 10:7.5310001 11:0.75300002 12:3.954 13:7.3429999 14:2.2590001 15:4.3299999 16:6.9660001 17:7.5310001 18:8.849 19:0.94099998 20:3.3889999 21:0.057999998 22:0.189 23:-0.23 24:0.19499999 25:0.442 26:0.46200001 27:0.426 28:0.704 29:0.075999998 30:0.229 31:-0.182 32:0.22400001 33:0.49599999 34:0.44 35:0.375 36:0.35699999 37:0.105 38:0.43000001 39:-0.219 40:-0.033 #
-25 1:7.7360001 2:2.8729999 3:2.652 4:1.989 5:4.862 6:3.3150001 7:1.989 8:5.3039999 9:2.652 10:8.6199999 11:2.652 12:3.0940001 13:4.6409998 14:3.3150001 15:5.967 16:11.493 17:6.4089999 18:7.2940001 19:3.3150001 20:2.21 21:0.56800002 22:0.32600001 23:0.63300002 24:0.27000001 25:0.79699999 26:0.75300002 27:0.72000003 28:0.389 29:0.23100001 30:0.044 31:0.28999999 32:0.296 33:0.80800003 34:0.56 35:0.105 36:-0.0080000004 37:0.171 38:0.125 39:0.377 40:0.161 #
-25 1:8.8570004 2:0.097999997 3:5.7080002 4:8.3649998 5:0.98400003 6:5.4130001 7:3.0510001 8:3.346 9:4.428 10:4.3299999 11:0.88599998 12:2.165 13:11.514 14:3.74 15:6.8889999 16:10.431 17:5.3140001 18:5.2160001 19:0.58999997 20:1.476 21:0.25600001 22:0.66900003 23:0.20200001 24:0.523 25:0.096000001 26:0.509 27:0.28299999 28:0.60000002 29:0.107 30:0.49900001 31:-0.213 32:0.32100001 33:-0.132 34:0.39899999 35:0.162 36:0.57700002 37:0.417 38:0.74400002 39:0.39899999 40:0.78299999 #
25 1:10.493 2:4.3210001 3:3.086 4:7.4070001 5:5.5549998 6:6.1719999 7:3.7030001 8:4.9380002 9:4.9380002 10:6.79 11:1.852 12:4.9380002 13:2.4690001 14:3.086 15:4.9380002 16:6.1719999 17:3.086 18:4.9380002 19:4.3210001 20:5.5549998 21:-0.123 22:0.061000001 23:0.463 24:0.40599999 25:0.44600001 26:0.43700001 27:-0.433 28:-0.44100001 29:-0.085000001 30:-0.245 31:-0.20100001 32:-0.018999999 33:-0.013 34:0.29100001 35:-0.38600001 36:-0.458 37:0.28200001 38:0.56800002 39:0.30899999 40:0.38100001 #
-25 1:6.177 2:4.118 3:2.059 4:6.177 5:4.118 6:7.2059999 7:0 8:9.2650003 9:8.2360001 10:4.118 11:4.118 12:2.059 13:2.059 14:2.059 15:4.118 16:3.0880001 17:2.059 18:4.118 19:0 20:1.029 21:2.178 22:1.595 23:0.97600001 24:1.11 25:0.40599999 26:0.68000001 27:0.77499998 28:1.1569999 29:1.503 30:1.474 31:1.479 32:1.604 33:1.008 34:0.82999998 35:1.234 36:1.365 37:0.54500002 38:1.025 39:1.4630001 40:1.416 #
25 1:14.007 2:1.681 3:6.1630001 4:1.681 5:5.6030002 6:8.4040003 7:1.681 8:3.9219999 9:2.2409999 10:12.886 11:0.56 12:1.1210001 13:4.4819999 14:2.2409999 15:3.9219999 16:12.326 17:7.8439999 18:6.1630001 19:0.56 20:1.681 21:0.273 22:-0.336 23:0.067000002 24:-0.241 25:-0.36700001 26:-0.354 27:0.64999998 28:0.244 29:0.208 30:0.048999999 31:0.071999997 32:-0.079999998 33:0.228 34:-0.28299999 35:0.29800001 36:0.289 37:0.037999999 38:-0.252 39:0.271 40:0.061999999 #
20.274859104633094375458313152194 1:2.9130001 2:3.641 3:5.461 4:8.3739996 5:4.369 6:5.0970001 7:3.277 8:2.549 9:3.277 10:12.015 11:1.456 12:4.7329998 13:5.0970001 14:4.0050001 15:5.461 16:8.0100002 17:4.7329998 18:4.369 19:4.369 20:1.092 21:0.32800001 22:0.66799998 23:-0.041000001 24:-0.092 25:0.75800002 26:0.76099998 27:0.43900001 28:0.44499999 29:0.227 30:0.197 31:0.18799999 32:0.132 33:0.27500001 34:0.18700001 35:0.15800001 36:0.41499999 37:-0.264 38:-0.094999999 39:0.40200001 40:0.611 #
-25 1:8.5279999 2:5.1170001 3:7.9590001 4:7.9590001 5:1.706 6:9.0959997 7:3.98 8:2.8429999 9:4.5479999 10:14.213 11:2.2739999 12:2.8429999 13:5.1170001 14:3.98 15:2.8429999 16:3.411 17:5.6849999 18:7.9590001 19:0.56900001 20:1.706 21:-0.55800003 22:-0.0060000001 23:0.001 24:-0.34999999 25:0.12800001 26:-0.25600001 27:-0.214 28:-0.199 29:0.075999998 30:0.028999999 31:-0.30000001 32:0.079999998 33:0.542 34:0.59299999 35:-0.31 36:-0.19599999 37:-0.16 38:-0.574 39:-0.36399999 40:-0.29699999 #
-25 1:10.488 2:0 3:6.9920001 4:5.5349998 5:3.2049999 6:6.118 7:0.29100001 8:4.6609998 9:3.2049999 10:11.071 11:2.622 12:6.118 13:2.3310001 14:5.244 15:4.6609998 16:9.6140003 17:9.323 18:7.283 19:0.583 20:2.039 21:-0.40099999 22:-0.46599999 23:-0.29499999 24:-0.20100001 25:-0.32699999 26:0.059 27:0.057 28:0.41999999 29:0.089000002 30:0.092 31:-0.178 32:-0.077 33:-0.093999997 34:0.085000001 35:-0.43099999 36:-0.07 37:-0.07 38:-0.27000001 39:0.28799999 40:0.40700001 #
-25 1:8.0340004 2:0.73000002 3:4.382 4:1.461 5:1.461 6:17.528 7:0 8:5.112 9:6.573 10:8.0340004 11:2.921 12:2.191 13:5.112 14:0.73000002 15:2.921 16:8.0340004 17:6.573 18:6.573 19:1.461 20:5.112 21:0.66399997 22:0.50599998 23:0.861 24:0.43099999 25:0.39300001 26:0.186 27:0.47 28:0.23199999 29:-0.025 30:-0.36399999 31:0.114 32:0.41999999 33:-0.022 34:0.329 35:0.32300001 36:-0.12 37:0.373 38:-0.046 39:0.205 40:0.12800001 #
-25 1:5.9850001 2:0.75999999 3:7.3150001 4:3.6099999 5:3.325 6:10.45 7:1.52 8:4.3699999 9:8.6450005 10:6.9349999 11:1.52 12:6.7449999 13:3.5150001 14:2.9449999 15:5.0349998 16:7.3150001 17:7.79 18:5.6999998 19:1.14 20:3.895 21:0.331 22:0.42500001 23:0.132 24:0.442 25:-0.024 26:0.028999999 27:-0.098999999 28:0.026000001 29:0.055 30:0.23 31:0.021 32:0.13500001 33:-0.0060000001 34:0.02 35:-0.017000001 36:0.074000001 37:-0.127 38:-0.131 39:-0.075000003 40:0.046999998 #
25 1:9.4029999 2:4.2309999 3:3.2909999 4:7.5219998 5:3.2909999 6:5.1719999 7:4.2309999 8:4.2309999 9:2.8210001 10:12.694 11:1.881 12:4.7010002 13:3.7609999 14:5.1719999 15:4.7010002 16:4.7010002 17:4.2309999 18:7.9920001 19:3.2909999 20:3.2909999 21:0.175 22:0.31200001 23:0.033 24:-0.086999997 25:-0.096000001 26:-0.075999998 27:-0.82800001 28:-0.35699999 29:-0.317 30:-0.50599998 31:0.67199999 32:0.53799999 33:0.29499999 34:0.537 35:0.186 36:0.041999999 37:-0.38 38:-0.121 39:-0.46900001 40:-0.162 #
-25 1:13.275 2:1.021 3:5.1059999 4:4.085 5:2.553 6:9.7010002 7:3.063 8:1.5319999 9:1.021 10:14.296 11:2.0420001 12:0.51099998 13:4.5949998 14:10.211 15:6.1269999 16:4.085 17:4.085 18:8.6800003 19:3.5739999 20:1.021 21:-0.44800001 22:-0.449 23:-0.154 24:0.0099999998 25:0.53600001 26:-0.032000002 27:0.53200001 28:0.108 29:-0.62699997 30:-0.45100001 31:-0.054000001 32:-0.21600001 33:-0.035 34:-0.081 35:0.74900001 36:0.45699999 37:-0.616 38:-0.259 39:0.336 40:0.114 #
25 1:9.9209995 2:0.26100001 3:3.3940001 4:4.6999998 5:6.2659998 6:9.9209995 7:0.78299999 8:4.177 9:3.3940001 10:6.7880001 11:5.744 12:8.6160002 13:7.8330002 14:7.3109999 15:3.3940001 16:3.3940001 17:6.2659998 18:5.4829998 19:1.567 20:2.089 21:-0.287 22:-0.50300002 23:-0.199 24:-0.184 25:-0.13699999 26:0.0080000004 27:0.1 28:-0.048 29:-0.1 30:-0.0080000004 31:-0.30000001 32:-0.176 33:-0.083999999 34:0.236 35:0.18000001 36:-0.033 37:-0.162 38:-0.198 39:0.421 40:0.169 #
2.1126059433447794688731846690644 1:5.6009998 2:3.3599999 3:9.1479998 4:7.6539998 5:3.921 6:6.3470001 7:1.6799999 8:4.8540001 9:5.2270002 10:5.6009998 11:1.6799999 12:5.414 13:4.1069999 14:2.6140001 15:2.6140001 16:7.0939999 17:7.8410001 18:5.7870002 19:2.24 20:5.414 21:-0.191 22:-0.097999997 23:-0.133 24:0.064999998 25:0.37200001 26:0.33700001 27:-0.27900001 28:0.15800001 29:0.208 30:0.294 31:0.39199999 32:0.68400002 33:-0.17399999 34:0.003 35:0.149 36:-0.017999999 37:-0.212 38:0.182 39:-0.083999999 40:0.148 #
-25 1:4.3189998 2:1.35 3:4.0489998 4:11.608 5:2.9690001 6:1.35 7:1.35 8:5.6690001 9:13.227 10:8.908 11:0.81 12:5.1290002 13:0.54000002 14:9.7180004 15:2.4289999 16:5.6690001 17:4.8590002 18:2.6989999 19:0 20:2.1600001 21:0.22400001 22:0.68699998 23:-0.214 24:0.168 25:0.81699997 26:1.353 27:0.141 28:0.67799997 29:-0.37400001 30:0.171 31:0.66500002 32:0.76700002 33:0.58600003 34:1.367 35:0.041999999 36:0.46900001 37:0.51300001 38:1.051 39:0.84299999 40:1.235 #
-25 1:7.3299999 2:1.534 3:4.0910001 4:4.2610002 5:5.4549999 6:7.5 7:2.898 8:5.796 9:3.5799999 10:7.3299999 11:4.0910001 12:4.7729998 13:4.2610002 14:4.6020002 15:3.5799999 16:9.7159996 17:6.4770002 18:6.6479998 19:0.852 20:3.5799999 21:-0.083999999 22:-0.033 23:-0.17200001 24:-0.13600001 25:0.14 26:0.13500001 27:-0.071999997 28:-0.206 29:0.48199999 30:0.229 31:0.39700001 32:0.303 33:-0.19499999 34:-0.17900001 35:0.034000002 36:0.085000001 37:0.175 38:0.097999997 39:0.412 40:0.234 #
-10.561280438118844315908972930629 1:7.75 2:1.163 3:3.875 4:6.9749999 5:3.875 6:7.75 7:0.77499998 8:5.8130002 9:11.626 10:6.9749999 11:3.4879999 12:4.6500001 13:5.4250002 14:4.6500001 15:3.0999999 16:5.0380001 17:3.0999999 18:8.9130001 19:0.38800001 20:2.7130001 21:0.221 22:0.139 23:-0.51499999 24:-0.107 25:0.43099999 26:0.54299998 27:-0.064999998 28:0.34999999 29:-0.16 30:-0.096000001 31:0.22499999 32:0.40000001 33:-0.249 34:0.17299999 35:0.54699999 36:0.66600001 37:-0.13699999 38:0.086000003 39:-0.333 40:-0.16 #
-0.83399924815652659582099204271799 1:13.303 2:0 3:5.4200001 4:6.8979998 5:3.941 6:11.332 7:0.98500001 8:4.927 9:2.9560001 10:11.332 11:2.9560001 12:1.478 13:5.4200001 14:2.9560001 15:4.927 16:5.4200001 17:3.4489999 18:6.4050002 19:0.493 20:0.493 21:0.186 22:0.373 23:0.31900001 24:-0.116 25:0.037999999 26:-0.134 27:0.105 28:0.30199999 29:0.71100003 30:0.359 31:-0.34 32:-0.21699999 33:0.81800002 34:0.565 35:0.17900001 36:0.152 37:1.018 38:0.66299999 39:0.063000001 40:-0.132 #
22.104478554513974586370750330389 1:5.802 2:4.6420002 3:4.178 4:6.0349998 5:4.178 6:9.5159998 7:0.92799997 8:7.427 9:7.8909998 10:6.4990001 11:1.857 12:8.1230001 13:5.3379998 14:2.7850001 15:2.553 16:6.4990001 17:5.3379998 18:5.802 19:0.92799997 20:4.178 21:-0.13500001 22:-0.18000001 23:-0.204 24:-0.024 25:-0.13600001 26:0.034000002 27:-0.056000002 28:0.0040000002 29:-0.133 30:-0.168 31:-0.0040000002 32:0.112 33:-0.345 34:0.061999999 35:0.414 36:0.44499999 37:-0.105 38:-0.244 39:0.18000001 40:-0.015 #
25 1:7.8720002 2:3.2409999 3:2.3150001 4:8.335 5:4.631 6:3.7049999 7:2.3150001 8:4.1680002 9:7.8720002 10:9.724 11:2.7780001 12:5.0939999 13:3.7049999 14:7.8720002 15:4.631 16:10.187 17:2.7780001 18:2.3150001 19:2.7780001 20:2.7780001 21:0.023 22:0.43599999 23:0.301 24:0.32699999 25:-0.39399999 26:-0.035999998 27:0.43599999 28:0.60900003 29:-0.26800001 30:-0.31299999 31:-0.35699999 32:0.093000002 33:0.124 34:0.23 35:-0.17 36:0.079999998 37:-0.29100001 38:-0.27200001 39:-0.0049999999 40:0.354 #
25 1:7.6230001 2:1.967 3:4.6719999 4:7.868 5:5.164 6:8.3599997 7:1.967 8:6.3930001 9:4.9180002 10:7.131 11:2.951 12:4.9180002 13:4.1799998 14:6.3930001 15:4.4260001 16:4.9180002 17:6.8850002 18:6.6389999 19:0.49200001 20:3.197 21:0.12899999 22:-0.23100001 23:-0.198 24:-0.024 25:-0.303 26:-0.025 27:-0.154 28:0.026000001 29:-0.243 30:-0.359 31:0.075999998 32:-0.119 33:0.085000001 34:0.237 35:0.19599999 36:0.109 37:0.093000002 38:0.118 39:-0.127 40:-0.347 #
25 1:16.188 2:0.176 3:6.6859999 4:4.3990002 5:3.5190001 6:8.7980003 7:0.704 8:4.223 9:7.566 10:7.9180002 11:1.9349999 12:2.1110001 13:7.9180002 14:1.76 15:2.4630001 16:5.631 17:3.8710001 18:11.437 19:0.528 20:1.056 21:-0.317 22:-0.29499999 23:-0.121 24:-0.252 25:0.41600001 26:0.301 27:0.27599999 28:-0.071000002 29:0.045000002 30:0.089000002 31:0.109 32:0.066 33:0.045000002 34:-0.078000002 35:0.322 36:0.37900001 37:0.301 38:0.093999997 39:0.016000001 40:-0.211 #
-25 1:6.165 2:0 3:2.74 4:6.8499999 5:5.48 6:4.7950001 7:0.685 8:6.8499999 9:5.48 10:10.96 11:2.0550001 12:4.7950001 13:3.425 14:10.96 15:4.1100001 16:6.8499999 17:6.8499999 18:8.2200003 19:2.0550001 20:2.74 21:0.055 22:0.106 23:0.73400003 24:0.25400001 25:-0.67900002 26:-0.92400002 27:0.67799997 28:0.43200001 29:-0.58099997 30:-0.43200001 31:-0.76499999 32:-0.075999998 33:-0.59899998 34:-0.37900001 35:-0.13699999 36:0.189 37:-0.28099999 38:-0.16500001 39:0.29499999 40:0.20999999 #
17.738977203717293917861752561294 1:3.7090001 2:3.7090001 3:4.2389998 4:9.007 5:4.2389998 6:5.8280001 7:5.2979999 8:3.7090001 9:3.1789999 10:7.4169998 11:2.6489999 12:4.7680001 13:3.7090001 14:5.2979999 15:7.4169998 16:8.4770002 17:5.8280001 18:4.7680001 19:5.2979999 20:2.6489999 21:0.34799999 22:0.82300001 23:-0.72899997 24:-0.64300001 25:-0.1 26:-0.62099999 27:-0.23800001 28:-0.26800001 29:0.84200001 30:0.22400001 31:0.07 32:0.26199999 33:-0.85699999 34:-0.58899999 35:0.178 36:0.148 37:0.21600001 38:-0.245 39:-0.259 40:0.244 #
